,0,1,2,3,4,5,6,7,8,9,10,11,12,13,14,15,16,17,18,19,20,21,22,23,24,25,26,27,28,29,30,31,32,33,34,35,36,37,38,39,40,41,42,43,44,45,46,47,48,49,50,51,52,53,54,55,56,57,58,59,60,61,62,63,64,65,66,67,68,69,70,71,72,73,74,75,76,77,78,79,80,81,82,83,84,85,86,87,88,89,90,91,92,93,94,95,96,97,98,99
Abasto,-1.1317811,0.28524816,0.4959441,-0.81592226,1.2653192,-0.864236,-0.67921054,1.4315912,-0.016019221,0.48213238,1.3050061,-0.7770139,-1.7854863,0.7450746,0.7669323,-0.20877664,0.50981724,0.079589784,-1.3416992,1.6556709,-0.27972236,-2.054089,-0.13050023,1.0450085,1.8183242,2.3211844,1.9970524,3.7326062,-2.0396194,-1.8043525,0.67470306,0.62039334,-1.0163753,-0.6665819,-2.8079205,0.10854746,-0.7035834,2.1793535,-1.8748862,0.8809844,-1.6292248,-1.4710764,0.317914,-1.2538557,-1.14512,-0.23797348,-1.1548837,2.4978607,-0.7479097,-0.65516275,-0.5868404,1.0419887,0.492388,-0.19598274,-2.144127,1.169276,-0.92096233,-2.20102,-0.7095377,0.5044872,-0.46987954,-1.5918629,-1.1158503,2.0748546,-1.9147145,0.9816477,0.28448442,0.5317579,-0.5365924,0.6051242,-1.404369,0.08317698,-0.25368962,-1.1617203,0.50032437,2.008381,1.804847,-0.2923775,1.2038572,0.8933564,-1.4095044,-1.1040448,-0.1814387,2.087517,0.60426235,0.40198016,0.08784563,1.9769813,-1.6847737,0.094678864,-0.52185595,0.18599151,0.70385253,-2.0289083,0.13200521,-0.18064323,1.0108562,-0.9587317,2.3911932,-1.072337
Agronomía,-0.10955072,-0.41970193,-2.5865934,-0.52114516,0.9048604,0.36442673,0.40665802,-1.01195,-1.1390865,-1.4534395,0.984169,-0.44425428,0.24385834,0.35149437,1.1704166,0.73636913,1.1820941,-1.837769,0.6174949,-0.5851127,-1.0888197,-0.9960387,0.24972469,1.0442742,0.80550635,0.21811111,1.4951311,0.9865179,0.68676406,0.2673791,1.2285,1.6674817,-0.49796626,-0.65959513,-0.28539327,-1.433515,0.7534012,-0.57279193,0.16860992,-1.0332326,-2.281054,1.2237344,-0.8254385,0.75228596,-0.18581446,-0.37147346,-0.77554506,-1.0256764,0.94041157,-1.9822637,-1.094893,-1.4040812,-1.0005406,0.7887438,1.1634386,0.058962394,0.34519804,0.5419974,0.47937152,1.560107,1.8185765,0.11326998,-0.8314965,-0.6439508,-1.30788,1.5697994,0.032384958,0.8114482,1.6202785,0.15748832,1.0701913,-0.4328791,-0.75692517,1.0696235,-0.6762814,-0.009054973,0.42602858,0.1842435,2.2397401,1.463867,-0.25653824,-1.1802149,0.585666,-0.2263777,1.4761635,1.0565948,1.4168957,-0.86389285,-0.88464606,0.91269654,-0.29583004,0.15347248,-0.3297819,-3.0758998,-1.0142573,-1.7800434,-0.01969788,0.2963169,1.014628,0.6680419
Agua de Oro,-2.2775044,-0.8108579,-0.83154947,-0.95615345,-0.13674489,0.0055066887,0.5995437,-1.364777,-0.9818562,2.0837228,-1.688062,0.46857274,0.5874422,2.0907621,0.6464365,0.2688023,-0.86733496,-0.075591736,-0.83073366,0.8524205,-1.1538655,-1.0978088,-0.66159105,-0.14801972,-0.4489431,1.2521089,-1.0240284,0.5758549,-0.6038278,1.6944531,3.5794148,1.350121,-1.2262771,1.5391469,0.25336745,1.3179011,2.934772,-0.09503049,0.475472,1.6481235,1.1352823,0.93327975,2.5990725,1.0087144,1.3154995,0.59319,1.649778,-1.1419487,2.4852781,-0.7760858,-0.049569935,0.7064074,0.31708393,2.5892897,-0.7374755,0.27366182,2.2384176,-0.68834406,0.38774368,-0.8060758,-0.54573095,-0.7111724,0.13819656,-1.472286,1.1479943,1.5914243,0.7356566,1.6227609,-0.45524314,1.3012556,-0.73374844,-0.26916495,2.0347145,0.7820274,0.9120084,0.28892297,-2.6350572,-0.9807185,-2.3884714,0.4196385,-1.161343,1.0502508,2.4870565,-0.55404955,1.1137792,0.98289096,0.7625341,-2.7230144,-1.9305661,2.4840953,1.8176196,0.50456476,-1.2352463,0.116285756,1.2723486,0.91613287,0.13385393,0.5257666,-0.9679363,-0.3144804
Almagro,0.57809484,0.41703156,1.047579,0.5267969,-0.7876147,-1.8886162,-1.0341413,-0.13091539,0.8791864,-0.33060083,0.30991635,0.48650998,-0.9200609,-0.43336165,-0.23072903,-1.0129746,2.184171,0.00180162,-1.6034565,0.7077629,1.7220315,-1.3131484,-0.1660077,0.80693156,0.8215781,-0.34974137,-1.8576038,2.518557,-0.377667,-1.2319677,0.34368956,0.5249831,-0.43389913,0.7735528,-0.063633345,0.8670704,-0.14481367,0.07615964,-1.9105324,1.3766855,-0.044368442,-0.5685948,-1.4881294,1.2606971,-0.6596124,3.4278495,-1.7203815,0.76667684,-2.212438,0.83995247,-2.8267324,-0.35730124,-0.15023622,-0.2076909,-2.3549976,-0.29640082,0.34181452,-0.75605536,-1.2860068,-1.8244762,1.7855473,-0.418365,-2.3329659,2.2961798,-1.2116971,0.5168472,-0.42586306,-0.45418307,1.0653039,0.19729379,-0.65915364,0.47594866,-0.13348503,-0.117046125,-0.18506306,0.07278633,0.21709418,0.62515724,0.12938616,-2.4446816,-0.71492124,-1.254749,0.17416066,1.9045471,-0.41631886,-0.76664674,2.0119076,-1.5051273,-0.26808774,-0.7920712,0.9069274,1.2034674,-0.7224439,-0.3095218,-0.7877127,-0.17195868,-1.3307993,-0.7969261,1.1070838,-0.8189641
Almirante Brown,-2.3497179,-2.9888766,-2.2128673,-1.4520968,3.369091,0.34991035,-0.44393167,1.1393547,0.16570212,1.9788731,-1.5706826,1.5493056,-1.3916209,0.87462866,0.09663702,-0.18405822,-0.11480729,-1.8854269,-2.50249,-4.6477337,-1.6752993,-2.4726882,-3.3530219,0.11788373,-0.1787764,-0.9485325,2.5672665,1.3887979,2.953238,0.8870177,0.44936273,1.7632447,1.634755,-1.0339669,-1.0835826,2.1196167,-1.4478565,0.37375143,-0.3821009,2.4953597,1.1298641,-0.41166118,0.94578695,2.0795588,0.048216943,-0.550835,-2.5486774,0.56802046,0.24836506,-0.79024655,0.20017771,1.2641413,-0.050980695,0.99030584,-1.937448,-0.2676572,0.38599133,-1.2107351,1.3348311,3.0833938,-1.8655671,-1.1156712,0.32656154,-1.367707,-3.5031528,-0.5744109,-0.9536878,1.0920779,-0.102693416,1.3724128,-2.2695317,-0.093333624,3.0854979,-0.09805742,0.44479516,2.6125007,0.7111748,0.29612878,-0.55932647,2.6634145,0.18128096,2.631517,3.2224844,1.331572,0.38733104,-0.8199755,1.4912733,-1.4131981,1.9121441,1.3211143,0.5556983,3.8239548,0.9224166,-1.1700811,1.6413523,0.5328057,-0.38222632,-1.8981411,3.3836102,1.1994163
Alta Gracia,-2.1694531,0.7203795,0.28385124,-1.492639,1.0806001,1.659048,0.73602706,1.5317724,-0.31734765,-0.7326337,-1.0614966,-0.03928955,1.8894506,0.070608296,-1.9299468,1.7767266,-0.7376312,-0.0063996287,2.9196053,-1.440132,-2.5737622,0.92189425,0.5505849,0.34553698,-1.8001529,1.0220056,1.027188,0.45493743,0.61784214,-1.1150576,0.8794657,1.5389616,0.7139535,1.0729016,-1.7840022,0.6103804,0.20278004,-0.5956748,-0.29254636,-0.32905242,1.3618838,2.1914186,2.2586694,-0.04215232,0.8894065,0.29339257,-1.2890396,-1.4554243,-0.9497487,0.4075668,-1.1444652,2.777131,0.428607,0.64577395,-2.551319,-1.2827818,2.5327728,-0.8554373,-1.0090469,1.3457273,-2.3369546,-0.78955644,-2.1862411,-1.0531684,-1.4550967,0.84885794,-0.4045912,2.3672867,1.9524918,-0.08212328,-0.2381841,-0.544871,1.2232403,-1.5714304,0.841527,-0.18683283,-0.815714,0.3337102,-1.1884301,0.021969741,-0.13835289,-0.30609122,1.9655684,-1.8622687,1.4101844,-0.116194986,0.06940128,-1.4282615,-0.88123477,1.7574129,2.0263252,-0.57282037,1.3152698,1.2318417,1.1117203,1.1604654,1.3256049,-0.32794657,0.5824688,0.4436225
Aluminé,3.2220066,-0.026751505,-0.6233921,1.3150487,-1.6287591,0.4237611,-1.4186538,-0.54282504,0.30326626,3.0801632,0.60514563,1.228216,-0.20889406,-1.0952826,-2.0090313,0.565499,0.5041545,-0.4026906,1.3618025,-0.13299006,-0.016784746,0.64228976,1.9787091,1.2954617,2.5274265,0.24821891,-0.4320772,0.99950343,-0.21211894,1.58473,-1.1779858,-1.7036693,0.626756,3.3990514,-0.16476718,-1.5759383,1.0169752,-1.0885916,-1.5488251,0.6229458,-0.4308689,1.4644712,0.7962213,0.38309476,0.6700066,-2.7763913,1.5728029,0.89749724,0.12028006,-0.13147026,-1.5387771,0.44018713,-0.301523,0.1166852,-0.2327211,-0.89822066,-0.6276444,1.1177412,-0.027543606,-0.82283586,0.097413994,-0.35049134,0.47980446,-1.7655339,-1.6824241,1.2034148,2.0843062,-1.5951915,1.6099671,-0.24234368,-0.1310431,-0.92890495,1.0269904,-0.75765795,-0.042854335,-1.4506041,-1.3955922,-0.007923456,0.08873227,-0.69213927,2.2214592,-0.9551779,1.1756474,-1.9067161,0.8814049,-0.2858889,-1.0034822,0.64098346,1.1085533,-0.4483301,0.67993313,1.3162991,-0.78089345,-1.0059735,0.8702304,-0.11476617,-0.5447839,-1.6087847,-1.6217319,-0.08159451
Alvear,-0.9300621,-3.7518723,-1.8576195,-2.1732197,1.0922638,2.6702557,0.35523552,-1.6251659,-0.5825,3.1850488,0.67316025,-0.70833784,1.8096641,-1.2839682,-0.24818088,1.7246268,1.6876068,-0.21266487,-0.65606534,-1.3801486,1.0232364,-0.41531256,1.0632561,0.5800167,-1.6423333,-1.114046,0.954353,1.391367,0.18753432,-1.5216678,2.1316726,3.3093255,-0.21024033,-2.5800633,-1.8030027,1.6692966,-2.2812424,0.122661024,-3.1429222,3.5580237,0.45680377,-1.7179613,0.08269576,0.44107136,-0.66601795,-1.8004159,-1.7491378,-2.5022047,-1.9009478,-0.19525175,-0.8943475,-0.9190924,0.43799025,-2.1119328,-1.8908913,2.5539773,-1.3900179,-0.66931903,1.9786036,0.32855853,-0.14164695,1.5100448,-0.8035036,1.6809462,1.6670421,-2.395505,-0.55803365,2.4283414,0.52964115,-0.2766611,-0.44139755,-1.4039803,-0.40729675,0.77828366,2.1756504,-0.7579476,-2.4933195,0.40539363,-0.21036778,-1.211628,-2.2839932,1.8611912,0.24863465,-0.45290327,-0.40036556,-2.6984193,-0.6256623,0.31089363,-2.448339,3.067579,0.95340073,-0.3713062,2.294906,-0.7492965,0.56261647,3.0110617,-0.8866492,0.9245045,0.38679266,3.2025445
Anisacate,1.6050951,2.0625553,0.4292286,-0.34789398,-1.8678675,-0.18200518,2.209087,-0.6774044,-2.2501285,0.8180812,-1.470173,1.2613171,3.025084,-0.5856957,-1.843745,-0.47009972,-1.4865706,-1.8921831,0.5762687,0.060680468,-0.83389276,2.4194894,2.0098224,1.1443459,-1.3338166,1.9465153,-2.2070432,1.1149104,3.0195308,-0.4451626,0.88086313,0.98213303,-1.101285,2.1268764,-0.9566957,-0.29128665,1.8564713,-1.505466,1.2912588,0.5713155,0.60696906,3.3128133,0.5870286,0.55006266,0.9411452,-0.45282832,-1.5895663,-0.13938443,1.5512569,-0.19413358,-0.064154305,1.2552292,-0.42468774,0.4865554,-0.04078673,-0.99948674,1.8613822,-0.16817003,-0.7193975,-0.48684648,-1.5052094,-1.3678802,-1.986892,0.8918577,3.2854354,2.1931708,0.8029482,0.55347717,0.59883565,1.8782687,1.2766776,0.5764225,1.4458275,-0.94482,0.804334,-0.1054961,-1.6562746,0.9138991,-0.69649285,-0.6601202,0.7202076,-0.9554456,3.6046607,-0.79001015,-1.091821,-0.5867617,-0.010389064,-1.3416597,0.6446518,0.74133056,1.3833082,3.0212052,-3.0378497,2.0024629,-1.8913162,-0.52171165,1.7430192,-1.2344141,-0.92892563,-0.0128158415
Arrecifes,-1.9407696,1.5586077,0.5045148,0.58098394,-0.47207817,-1.2372752,-1.2791644,-1.5030694,-0.785317,-1.3358312,0.85173637,-0.9750109,0.18563546,0.3564421,0.41353664,0.9092797,0.53947234,1.0796227,0.7619696,-1.0287266,-1.3857411,-1.2626024,-0.12205983,0.097170845,-1.3108692,1.0209035,0.2875522,0.9544745,-3.09949,0.7453655,0.4572915,1.1242052,-0.12189147,-0.08796883,2.8388903,0.24160103,0.105380714,-0.4283926,0.57168776,0.39158985,0.6397613,-1.960557,-2.5476992,1.172792,-1.3264891,-0.15509865,0.6855125,-0.5801911,0.9225923,-1.9560827,1.4724269,-1.5984182,-0.15333474,-0.24940276,-2.0318377,1.1862875,0.24252406,0.7925494,2.1370134,-0.41201416,-3.0890973,-0.22757527,1.3882318,0.032185286,1.681483,-0.94882715,-0.46647808,0.53974944,-0.65612954,1.3893198,-0.44683027,-0.5824559,-0.875634,0.9897895,-1.6690611,0.9049084,-1.6895508,-2.0149133,1.4980154,-0.11380379,-1.0183818,0.6470221,3.1606162,0.7294529,-0.8554685,0.8689441,-0.3243008,0.097109556,0.022906069,-1.4927372,-1.2443422,-0.69494635,-0.9966831,-1.5680722,1.2746067,0.7856911,-1.6479436,-1.6809865,0.90381765,-0.4494056
Ascochinga,1.1587867,0.6639506,-1.0106814,-0.24996011,0.49963272,0.5903172,-1.86241,0.38781127,0.27090943,1.1950843,2.3545253,0.84079915,0.8042332,0.10110547,1.5358117,-1.0517247,0.4575373,0.40963927,1.5075326,-0.81760114,0.81391394,0.21902652,-1.5950501,-0.37530214,-0.97968787,-0.184184,1.4512982,0.39876574,2.169282,0.11587845,0.5122896,-0.64515555,0.4494657,3.369286,-0.54771626,2.485443,0.666799,2.053879,0.78895265,0.19032194,1.5071913,0.36495906,1.38119,0.15565361,-0.0027696441,0.2902657,-0.3806114,-0.4467639,1.4612496,0.363751,-0.535516,1.279291,0.7772126,0.86073434,-2.2571535,0.14827342,1.8639888,-0.13395391,1.081482,-0.732911,-0.6286669,0.3228996,-0.65802103,-0.81496775,1.6153694,-1.84997,0.67199117,2.266095,-0.8399651,-1.0015597,3.2693672,1.2277552,1.3712796,0.46739128,0.44609904,-1.3270084,-1.4100381,-0.84586114,-1.1718582,1.8649619,-0.95673305,0.61259925,0.6425054,-1.5039487,1.0809498,2.0418565,1.5603064,-3.23391,0.2926671,-0.35983416,0.1523774,-0.20078184,2.5036726,1.2969762,1.6363392,0.19627793,2.0427136,0.12319636,0.76021576,1.5044227
Avellaneda,-1.7384511,0.01918306,-1.5936385,1.2956989,-0.6954221,0.3825773,-0.5945799,2.1585448,0.20179805,0.109715074,-2.0318594,0.83629036,-3.4290576,1.9377099,0.29261458,-0.8641466,-0.05297493,-1.3992745,-2.3102937,-1.0581822,1.3705918,-2.4732032,-1.7120225,-0.17898567,-1.1679661,1.2676804,-0.48541936,2.3222017,0.7113281,0.53204286,-0.6496313,-1.2686126,1.2910178,1.5704906,-2.3572176,1.4249699,-0.42635134,0.7638615,-1.2757032,-0.4780202,1.6564745,-0.53088105,2.190887,2.6232846,0.6883306,1.803859,-2.1247342,1.2422465,1.0060805,0.6586646,-2.4057417,2.8196561,-0.35077044,0.084953144,0.9321363,-2.583437,-0.74296683,-3.8193395,3.8100579,1.0686646,-0.47516152,-1.9482948,-0.5114989,2.9798484,0.9663398,1.2289004,-3.2190259,1.1104325,1.4973519,1.9806607,-3.2151256,-0.0223673,2.1378343,-2.998149,0.22919822,1.792597,1.4578183,-2.5703182,0.5548784,1.1374121,0.51801753,1.9555191,2.5417178,3.0592072,1.1719625,1.2093216,1.5268588,-1.9687649,1.0563645,0.9872325,-1.4068837,3.3970764,-1.2240505,0.59364843,1.1149197,-0.6499113,0.80757445,-0.878377,5.7634587,0.29072428
Ayacucho,-0.36690134,2.6205409,1.3540914,1.1579517,-3.2553556,-1.6798512,0.18648203,-0.5557287,-0.5968803,0.20744266,-0.08497232,1.3297681,1.8432049,-1.2748618,-0.35460436,2.3088892,-1.1573086,0.61037415,-0.23079205,0.6117754,0.50653446,0.31826612,1.8327711,0.54170823,-0.09158568,-0.13367327,-2.2445066,0.68156475,2.1707563,-0.6060358,0.1117928,0.52014667,-0.63241154,1.877995,-1.3106276,0.08326118,0.60100967,0.09314734,-0.45411617,-1.6471057,-1.1212391,2.3711264,-0.75559103,-0.47160712,-1.4130199,0.61417836,0.13804863,-0.21111496,-1.0483983,-1.5887998,1.1228492,-0.19483076,-0.12463395,0.5244096,0.9350771,0.7098838,0.9030251,-0.2706681,-1.69849,0.60808545,1.187542,-0.33410093,0.11091791,1.4642603,0.7236776,-1.1280909,1.9567614,-0.5468487,-2.5563097,0.8769154,0.20770118,-0.5106493,-0.81612724,0.5849489,1.077078,-1.1300893,-0.92392945,-0.49569982,-1.4646968,-1.4042856,1.3766783,-0.94288003,-0.73543,0.0986493,-0.0825182,-0.99492335,-0.5392333,0.59318227,2.3373656,0.12697409,-0.086605966,-0.29567704,1.3781921,-1.4207308,-1.4474432,0.49069813,1.6429948,1.0586438,-0.7572135,-0.47722203
Añelo,-1.5632226,0.3212756,-0.36649343,-1.1724819,0.8096667,1.523105,0.7566795,-0.5269571,0.16138127,1.2542554,0.048180345,1.4846114,-0.13719155,1.339233,-3.23139,0.88820785,-0.2690668,0.40854862,-0.89706165,-1.4800081,-2.2989695,0.7460408,-0.5033346,-1.2403504,-1.0143101,2.0236957,2.5555577,1.4305546,-0.7622126,-0.5789384,0.013717419,0.05194213,0.2850264,-0.59919244,-0.17121987,-0.072219245,-1.1905311,1.4653134,-0.4220102,2.1045449,-0.7885013,-0.05750388,0.92689717,1.8752468,-0.7768456,0.4762529,-0.94540054,-0.100583985,1.1000028,-0.17536265,-0.65656316,0.70118415,1.0462595,-1.7095236,-1.3348864,-0.59829783,0.71928596,-0.005317176,2.061033,0.618124,-1.0338119,-1.0730795,-1.6159931,1.393946,1.7375668,0.1286815,0.79684854,3.3862505,-0.54352164,0.6800202,0.03829072,0.06906324,-0.34501582,-0.6056992,0.84602875,-2.1665442,-0.92332315,3.1145418,-1.4503286,1.4335618,-1.0097853,-0.97669595,0.40139326,-0.14997746,0.032331854,0.12486276,-0.19782178,-1.4790682,-0.6737386,0.26184022,0.56246346,0.7856597,-1.20708,-0.81139517,1.3924748,1.3339912,0.5073135,0.1786075,0.73443043,2.2129703
Bahía Blanca,-1.1746929,-0.40180877,-2.298107,-0.46051642,0.06973568,1.3800753,0.14709033,-1.6226678,-0.59886795,3.0473964,-2.1695843,2.340968,0.6038075,-1.0816923,0.50852245,0.12481488,0.20620029,1.1190308,0.983205,0.106950246,-1.8291553,0.27644926,1.0859625,-0.343952,-3.9591894,-0.5764376,0.13555583,1.1044195,0.78397745,-2.023288,2.1219718,1.1294154,2.0832832,2.3307307,-0.5461256,0.60062855,1.4430413,0.76630706,2.085748,1.7846648,0.3632004,2.1127725,2.6892726,2.842553,1.5977881,2.190537,-0.8970082,0.53264415,1.2663841,1.0120171,-0.21069033,2.4997575,1.2606512,2.051612,-0.9964388,-0.28139988,2.2866263,1.4224037,0.8761602,0.19355316,-1.4661462,-0.31409597,-0.4825059,0.775624,1.3346523,0.3516759,-0.5067997,2.2531738,0.07930593,3.1264963,0.6972913,1.922376,0.6591963,1.1664215,2.6377726,-0.45920137,-0.1395585,0.47121823,0.012434991,2.4249,-0.948792,2.1336138,2.50441,-0.0022417216,1.1917056,0.39798912,-2.203329,-0.79073024,-0.29534304,-0.9665462,2.505093,2.9242368,-0.7692729,1.4775044,0.23830624,1.2976152,-0.33147207,1.2096341,1.267348,2.257282
Balcarce,1.2580056,1.4936316,-0.579016,-3.2080896,1.5314479,-2.064346,-1.3261006,0.13140865,0.2863079,1.9241728,-1.6539379,0.9995337,0.7473795,1.3464366,0.14953382,1.2823933,0.5744944,0.8487186,1.8412017,-0.5001832,-1.4760556,0.32258403,0.58250993,-0.506512,-1.2902434,0.08766644,1.2902718,0.8997333,1.1449096,0.14486523,2.0382328,2.696836,0.5441907,1.9089524,-0.9820687,2.1961153,0.48375416,-0.41489604,0.11466862,2.271378,-0.040390518,-0.6955899,1.4530208,0.93081063,1.839917,-0.9376695,1.0167805,-2.0269465,1.7169728,-0.77378356,-1.0542464,0.82465214,1.8135914,1.2821362,-0.84526455,-1.3938684,-2.834211,-0.06698153,-0.47016972,-1.5356858,-1.834346,0.700569,0.53922194,0.9868226,1.7019602,2.3208134,1.7219275,-2.3118258,1.6955582,1.584604,-0.9039689,0.103466555,-0.7222532,-0.28191936,-0.25198865,2.4494877,-0.6944129,-0.32238492,-0.046210438,0.1445888,0.83797973,-0.16254745,0.85421854,-0.816655,0.9890096,-0.0796097,0.5965163,-0.2675253,-0.6465677,1.8198147,1.186707,1.1941596,1.5555317,-0.9005352,2.0856748,1.4049704,-2.0376623,1.0351408,-0.4408169,2.1180863
Balvanera,0.937856,-0.1070623,0.23750693,-0.62076145,0.1995771,0.40708888,-0.6324397,1.5625012,-0.9118929,-0.15484545,0.07005466,-0.813368,-1.393418,1.5070094,1.1342943,-0.027468037,1.2307922,1.251317,-1.7923446,1.040257,1.7914554,-0.77993214,0.08750936,-0.06433979,-0.44600186,1.4574623,-0.044666193,1.651364,-0.598588,-1.4619633,0.29954058,0.6634329,2.3460763,0.7381713,-1.8213465,0.5748679,-1.9196683,1.0941434,-0.92484814,0.6149924,-1.5500222,0.7801417,-0.27677402,1.8258274,0.0039845766,-0.9113902,-1.6749085,1.5368023,0.0672437,1.4383867,-1.842378,0.87577796,0.78373384,-0.3014631,-0.6085589,1.3790894,-0.19785872,-3.050472,-0.7019995,0.47294572,0.2510172,-0.9636872,-1.4255044,1.545794,-0.42792162,-0.90730923,-0.9274535,0.6341046,-1.6679342,0.5452073,-0.61725205,0.7687708,-0.40261447,0.18226624,1.3165017,2.8080008,0.16240744,-1.1607374,2.5812314,0.5868381,-1.6998081,1.8826704,-0.79042554,2.0966995,0.3415843,0.9111528,1.0863469,1.1082461,0.0016860635,-0.16644607,-0.057625875,0.21233842,0.058418885,-1.3515471,0.7241466,-1.068732,2.0050952,0.65698797,2.0352874,-1.9231478
Baradero,-1.1238657,-2.7095962,-3.129968,-1.3317165,1.032764,-1.1492451,0.7182484,-0.3093646,-0.5390973,2.6958332,0.5157903,2.0378242,-0.7874295,0.6946511,1.479727,0.67906076,-1.32165,1.7102503,0.12001492,-0.29090253,0.22876261,-0.34845534,-2.1182377,1.8212373,0.27473155,0.3720878,-0.2681152,0.34811562,-1.0289043,1.4423308,1.1010798,1.4052094,-0.3193499,-0.38095945,-3.2714913,-0.37901837,2.3829257,0.60513735,0.21530296,-0.8758609,0.31510222,-1.2285265,0.25700212,-0.116270535,-0.2413559,1.380423,-1.4639328,-0.9369298,1.2998985,0.55691177,-0.27686372,-0.44340178,-0.75497407,1.5804169,1.0763514,0.6201794,0.5869687,-0.11688756,0.6251576,0.38022742,0.19917421,-0.9250416,-0.92998147,-1.93863,-2.383092,0.6361974,0.5980479,-0.9335856,-0.59572095,-0.20241535,-0.2992225,-3.539809,-0.6676035,0.46305877,-0.7787402,-0.08145276,0.7111739,0.6283279,0.08198955,0.41273838,0.62557095,0.7352488,3.6332734,2.080357,1.3201165,-0.4372052,2.0153406,-1.1835117,1.580174,0.96407914,-1.5402768,1.5860604,0.14500998,-1.3479034,-1.6179727,0.14352402,2.3350685,0.77184695,3.9826937,0.1432416
Barracas,0.35125455,0.62057614,-2.3089252,-0.37681687,-0.35282063,-0.18845859,-2.1100962,0.22371672,0.3185873,-0.722065,-0.8560968,-1.279611,-0.6237199,1.7254878,3.611726,0.3527267,-0.33172426,0.036322888,-2.5243979,-0.31419805,0.3199318,-0.22872461,-1.8175461,0.7018919,-0.38131642,-1.2308985,0.7646987,0.06779705,0.87747794,2.096758,0.60869426,-0.3599492,0.3758904,-0.059951812,-3.315666,1.0344288,0.44455135,0.8403999,0.97683537,-0.6101903,-0.18421373,-0.92477363,0.32884234,-0.45548552,-1.6685145,-1.0529927,0.26799318,1.3270602,-0.3135976,-0.71935916,-0.26698834,-0.48184368,1.0336251,-1.1037959,0.78004265,0.7141915,-2.5261273,-3.3943155,0.3680572,0.16766989,-0.42988518,-2.4638345,-0.2905589,1.401795,-0.37626413,0.8507827,-1.1948662,0.43371633,-1.3936924,-0.17675953,-2.1783383,1.2216476,-1.3432591,0.9073863,1.1914443,2.1791418,1.662806,-2.2752988,2.393572,0.92272437,-1.05297,0.37833878,0.5944956,3.0671153,-0.5251336,2.7603421,0.49507728,0.353111,1.4309351,-0.9625513,-0.08572514,0.6891684,-1.3330395,-1.6073937,0.19475041,-1.0225124,-2.1443906,0.008050726,1.052055,1.0274813
Barranqueras,0.051141303,-1.345848,-0.7210815,-0.44740137,0.73190224,-0.999056,0.8053919,1.0690715,0.29554322,1.310224,-0.51477075,-0.20133665,0.9240519,0.738959,-0.3540327,-1.1801249,-0.8121891,-1.4626302,0.6582714,-1.4304138,-1.676621,-0.42880595,0.3779545,-1.587664,-1.8929664,1.5690949,0.6725864,-1.5288199,3.51124,-1.187766,-0.7992021,-0.016988,0.27207005,0.6975648,0.05008654,0.2189601,-1.2093996,1.930675,0.6301522,1.0006851,1.0665499,1.2404568,2.1036704,1.2941177,0.26619112,-1.0928603,-3.401615,-0.095097825,0.07131902,1.0024674,-1.2347056,0.18018462,-0.19273144,1.6489892,-1.0390213,-0.7593691,-0.85207367,-0.65046823,-0.97527146,0.11260191,0.65226716,2.0115032,-1.0012566,0.28177795,-0.7670382,0.2561641,-0.99404985,-1.3659247,0.21953203,0.6821092,0.6739504,0.25073668,2.4309275,-1.6065327,0.7755185,0.043586675,-1.2997856,-1.0381539,-1.6260518,2.1209958,1.2687558,-0.7579006,0.7862726,0.03643545,-0.17660011,-1.1050475,-0.9147866,-1.1654532,0.10728189,1.7878044,0.74345535,1.1959532,0.9353312,0.37468466,2.2858448,-0.6671672,0.5123855,0.11177602,2.1899357,0.78682154
Barrio Norte,-0.8772364,-1.3294361,-0.26141077,0.36665538,3.2063563,-1.7788293,-1.4655092,1.0505599,-1.9891205,1.165334,0.603279,-1.623421,-0.16707414,2.0912066,0.22177613,2.2399454,1.5594239,0.48324996,-2.6407523,0.3266546,1.2307203,-0.6324394,0.5245434,1.8730102,-0.5333842,1.5303959,-1.3582484,2.7782874,-1.0879081,-3.2913759,-1.0892745,2.1270595,-0.53652865,-1.5604085,-3.7217593,1.5828965,-0.31439775,1.5256073,-2.0845106,-0.11879511,-0.29605365,-0.17213692,-0.35242128,0.76982325,-1.0401868,0.9779763,-1.9448599,0.58709276,-2.5164661,0.5175904,-1.8963611,-1.4897307,0.81799275,-0.29207706,-3.332595,0.88896304,-0.6176652,0.1704435,0.30778462,-2.394237,2.203715,-0.7855744,-2.0843322,1.5820993,-0.4642603,1.1017652,0.23178248,0.6810804,-0.47708312,-1.0589674,0.106291,-0.40408003,-0.7182687,2.7256777,-0.45218092,1.3949885,0.057698824,-0.81950027,2.0677843,-1.2330066,0.24825662,-1.0333052,-0.6356661,0.49791917,-1.4465126,-0.008097674,0.6449829,-1.4521943,-1.0083653,-0.6019539,-0.50651276,0.055390436,-0.05253902,0.11033893,-1.7269019,2.1315963,-1.5445057,-1.1184247,0.7201437,0.16003539
Belgrano,0.27199417,1.20147,-1.3663316,0.7112144,3.192262,-2.2234855,0.23867473,-2.3369157,-2.2762244,-0.95889276,1.4181969,0.15423447,1.9487938,1.853305,-1.503827,1.278139,1.7770519,-2.2914958,-0.9168593,2.1124716,0.2015922,-0.13459714,2.1921728,1.2928114,-0.6509353,3.8769357,-0.15596822,0.90124893,-0.22814433,0.42532897,0.9843264,1.1309738,-2.4826112,1.4777417,0.106906705,0.93342406,1.076606,-1.8364215,0.8214515,-0.22660007,0.2687905,-0.50665885,-0.35345277,-1.3914918,1.0413225,1.365333,-1.0186298,-0.20004794,-0.66017324,-0.50270987,-0.052372,-1.1863441,-0.8375566,-0.65427536,-2.5264301,0.59144914,1.5452772,1.5394009,-0.6737306,-3.8415723,2.2228854,-0.7588915,-1.2593027,-0.08676213,0.19994222,1.2171295,2.3307366,-0.29610756,-1.6195598,-1.2210422,0.86241436,0.38171118,0.20719875,0.6315856,-0.23029275,-0.0057851514,1.1317856,0.5116904,0.7172194,-1.6657938,1.6457393,-3.2261925,0.1553578,-0.2798143,-1.365175,-0.49724284,-1.4133183,-2.529132,-1.1206795,-0.8191599,-0.09767121,-0.56689966,-0.3109104,-2.2958183,-0.70230883,-0.51810765,-2.9923353,-1.3006544,-0.7741534,-0.49988818
Berazategui,-1.330061,-0.8531736,-1.9992903,0.06722714,-0.10465957,-0.40953097,0.17832795,-0.27389365,0.7014987,0.7595656,-2.0423903,1.7940054,-1.0719413,0.96524066,0.10057097,-1.2643039,-1.7701725,-0.70185256,-2.9934945,-1.0658503,-0.365957,1.6485382,-2.3761911,0.24690615,-1.8259578,0.8981761,-0.24413925,-0.92243296,0.574895,2.2930958,-0.6108056,0.54406,0.3140378,1.5699946,0.0095863715,1.8879632,2.6701174,-1.4486364,-0.18089001,1.1090773,0.47618374,1.0199962,0.7213103,3.0377226,-1.8260148,0.8881767,0.3107338,-0.5608016,0.575566,0.4003209,-0.84677446,1.4158697,-1.3170813,2.391583,-0.41566196,-1.4706477,0.0478498,-1.1402076,1.3679572,1.2244945,-1.7081002,-3.3171132,1.9093455,1.478899,1.1289127,0.48129058,0.2812115,0.4414558,1.2458856,1.8580254,-3.2783566,-1.323101,3.5352974,-0.3003736,1.6448288,-0.008803005,-1.972951,-0.38749862,-0.10517466,-2.265956,-0.35218626,-0.0826315,3.0057325,1.1422805,1.8376939,2.5150242,1.1178354,-3.5932736,2.3302848,1.92454,-0.023210613,2.7908292,0.29599845,-0.3006991,-0.7485704,-1.45115,-0.05016789,-2.0297358,0.1048631,1.7385545
Berisso,1.9402249,2.3816204,-1.8736733,-1.59119,-0.7905406,-0.3771479,0.4385713,0.32334358,2.357952,-0.1472084,-1.1662536,1.7669015,0.68703073,-1.9921792,-1.4383641,-0.013839821,0.36758628,-0.09448229,2.0743551,-0.2947831,-0.3617753,-0.6248887,-0.7141972,1.3466166,-0.6159606,0.610867,-2.0509517,-0.51597565,1.3438519,-1.2936572,0.67096967,-1.1778499,1.3078562,1.1139282,-0.8174763,-0.6686652,1.6516807,-1.5507151,-1.8444661,1.6440393,0.68690026,1.5087047,1.1682043,1.4858409,1.952279,0.14544922,-2.0270333,1.9890814,-0.7756581,0.801014,0.7218613,0.62133384,1.5449644,0.27647647,-0.7265373,-1.594176,1.3777618,1.2999407,-0.2757563,-1.0705411,-0.99354434,1.263343,0.560351,0.7963213,-2.0780919,0.8384434,1.451292,0.8159428,0.49935412,1.237671,1.8415889,1.9412956,0.47805423,-1.9102631,2.176082,-1.2821563,-0.26709643,0.18592322,-1.8532243,-0.48416105,2.2234502,-1.7756888,1.3721738,-0.2770885,2.0105593,0.44946772,0.9951568,-1.4615346,-1.6249648,0.48389465,2.4964764,0.30061635,0.43765575,0.60128754,-0.5150703,0.06508026,0.25100136,1.299223,1.72068,0.8612585
Bialet Massé,-1.2072519,-0.108603686,-0.59093785,-2.5320406,0.53793293,0.83233327,0.25608912,-0.68847644,-1.971746,0.22410065,-0.44557753,0.89731336,2.4023488,1.3559326,-1.444546,0.2445981,1.2253606,-0.3785952,0.5249025,-0.9442281,-1.1048808,-0.3985786,0.23303582,0.23656751,0.58766645,0.49808866,0.4778189,-0.6496641,1.9818563,0.4372248,-0.19881971,0.8884354,-1.0224117,0.21459003,-2.0137932,3.1368313,0.33009356,1.7832466,1.6053634,0.38571683,-0.8004562,-0.12064523,0.09846047,0.73416895,0.3217262,-0.12602405,0.80663294,-1.0331031,-0.9399375,0.600419,0.84604615,1.4781349,1.1017363,0.9564149,-0.8500151,-0.72546935,-0.9354211,0.65630853,0.6874552,1.9276453,1.6894718,0.79708636,-1.7064303,-1.3546115,-0.3104612,1.0887623,-0.35286337,2.924877,-0.023783961,0.6632463,0.76057017,1.2358493,0.6775415,0.2823755,0.492374,-3.8522112,-0.3696431,1.9920008,-2.3787906,0.6512968,1.3599254,-0.21211809,2.4010851,-0.9874062,2.188574,-0.73411244,-1.3289018,-1.1268195,-0.22560725,1.505107,2.859554,0.49096075,-2.0793366,1.4999164,-0.01154718,-0.17213492,0.22352557,0.39820808,-1.1409149,0.71346915
Boedo,0.24606965,0.20408857,-0.122316495,1.6214578,-1.3313696,-1.0699362,-2.646532,0.90289444,-0.2440571,-0.7094654,-0.528295,-0.5907255,-1.3123963,0.53640705,0.5510561,-0.5439789,1.2145201,-1.0264442,-0.9332433,0.5644916,0.9189262,-2.441074,-1.4666902,0.9735832,0.58395046,-0.16299944,-1.5258069,1.3178258,-1.368686,0.40310517,-0.9264543,-0.90806794,0.5222578,1.2880774,0.50065714,0.37040377,-0.63741374,-0.1694729,-1.4095389,-2.1071942,-0.98714566,0.6347726,-0.43829027,1.8874315,-0.79199857,0.7605928,-0.7091566,-0.3670334,-0.95505595,0.9363301,-1.7556071,0.31940788,-0.8542062,-0.8850591,0.76520115,-2.04604,-0.28359523,-2.0746326,0.13366202,-1.5312396,1.2402755,-0.22664708,-0.83077794,2.1775336,-0.4360351,0.11214492,-1.2614005,-0.4575165,0.2475656,-0.98423535,-1.7031444,1.2711285,0.12052108,-0.2661923,0.30568513,0.004042711,1.2480482,-1.7586894,0.7421199,0.4142108,0.09778372,0.16254607,-0.07207189,2.246823,0.2490072,-0.13860074,2.0100298,-0.8550791,0.9394463,0.49703252,-0.60982764,2.7311397,0.095573686,-1.6030985,-1.8929538,-1.6724818,0.8528354,-0.3827193,2.570943,-0.69085205
Bowen,-0.98416036,0.45516306,-0.2849285,-1.9284109,0.90946424,-2.2434726,0.5671395,-1.319682,1.1353933,0.6875623,0.61386675,0.3839068,0.36625662,0.09458509,-0.9689513,0.4273833,-1.519789,-0.32019287,0.19083115,0.74390686,-1.4003409,1.9114039,1.0515423,0.11087628,1.9926295,0.16652152,1.6226975,-0.29372755,1.8815486,1.3131778,1.5222301,-0.07033519,-1.154308,0.39265087,-1.0805429,-0.8746212,1.4024012,-0.7359282,2.2567494,0.23339064,-0.15272461,0.87134254,0.04401422,1.366398,0.61012894,-1.4427716,0.641063,-1.2646939,0.91115296,-1.3038691,0.31348443,0.899048,-0.102677256,-0.21936691,1.423536,-2.2313433,-0.70322734,-0.088617004,0.46040666,3.5093098,-1.8402934,-1.6359183,0.40799996,-0.94357556,0.7759326,-0.3013114,0.7592821,-0.112969756,-2.4814694,-0.7238068,-0.2697678,0.6483381,-0.20615128,-1.5143396,0.9784459,-1.1371267,-0.18127775,-0.05151404,-0.87994033,2.330539,-0.6011923,2.0817468,-0.20941222,-0.20460255,2.3302975,0.49475914,-0.45599538,-1.1127836,-0.45376536,-0.8710514,0.37405026,-0.95399016,-2.113166,-0.7166775,0.59110576,-0.38481385,0.85361964,0.53036815,-0.08341175,0.083894126
Brandsen,-1.0855652,-0.22830437,-3.0394301,-2.5141647,0.21298926,-0.417785,-0.37192035,-1.0481617,1.2164361,-0.65165764,-0.6774063,2.8435702,2.5264888,0.44292286,-1.5457959,-0.881281,-0.81771857,0.17987977,-0.09011095,-2.791144,-2.203763,-2.1087599,-0.26033393,-0.83881396,0.5936306,1.148883,-0.60395205,-0.9848387,4.376651,-0.24404885,-1.4511603,2.0343146,2.0579495,2.072388,0.8890554,-0.81502634,2.0057085,0.27569652,-0.85121644,-0.4002252,-2.1470206,-0.9222614,3.2887228,-1.2287674,-0.10398776,0.926107,1.7167065,-0.23662902,0.3339432,-1.433322,0.48674327,0.97264,-1.2678849,2.5302184,-0.27949873,-2.0195787,0.745483,0.6615054,-0.8066941,1.2862141,1.149872,0.14238721,-0.20045011,-1.1796445,-0.1906561,-0.031628415,0.648069,1.4574039,1.3936538,0.6024754,-0.91550624,-0.42957866,2.3480115,-2.0946867,0.8014292,0.4606889,-0.76435447,-2.13501,-0.75962853,1.827506,2.858785,0.26716018,3.7219102,1.9071165,1.2572652,-0.36011097,0.5069809,-2.6032917,0.7551532,1.3453761,1.519422,1.5279365,2.1602788,0.80408967,2.3126364,-0.9460911,1.7712185,-1.3928002,2.9721675,1.7887636
Brasil,1.2691703,0.2226687,-1.0502388,-1.166216,-0.6565782,-0.96416444,-0.50759035,1.6484853,-0.39517102,0.8549509,-3.545313,1.62394,0.051514786,-0.5104864,-0.21075986,-3.9605622,-2.8956172,-3.1490908,-1.391028,-1.1678189,-0.8856982,-0.38448343,-0.110256836,0.43130252,-2.0687983,-1.3719842,-0.65779835,-1.2310741,3.157244,2.5859623,-1.0420028,-0.5037127,-1.0762337,2.6653118,-2.220879,-0.09515537,1.6226349,-1.0924472,-2.2169123,-0.818564,1.5275147,1.722369,0.5867919,1.7200166,-0.86099476,1.4015485,1.6449347,0.53161925,-0.36809504,-2.1049848,-0.55861574,1.521056,-1.7483524,1.342124,2.4344537,-2.0537963,-0.112496704,-0.15848398,0.83273387,-0.3660336,0.11655219,0.41561204,-0.5408299,-0.91206366,-0.8538042,1.5772015,-0.92680043,1.4273984,2.552162,0.5915325,-0.21433225,0.7250598,1.7876881,-0.7112863,1.0635988,0.30004972,-3.6761568,-1.1538913,-0.8699584,0.5964202,1.2305814,-0.5718118,3.1612182,-0.7814608,1.7876866,2.0706758,3.034004,-1.7059152,2.3039615,-0.39113545,2.182179,2.278164,-0.5852421,-0.5816638,-0.267768,-1.0449289,-0.23380722,-1.1393728,0.80233663,-0.377707
Cabalango,0.38002768,1.228384,-1.7330729,-2.1507125,0.31324285,0.49387336,0.5913683,-1.3861822,-0.1624121,0.8314007,-0.006697296,2.3410695,1.7367789,1.6149963,-1.435268,0.22007062,-3.0250294,-0.4060143,1.902024,0.37643602,-1.6486429,-0.14955153,-0.3596796,-0.12876247,-2.429991,0.3836263,0.18219532,-0.44695276,1.5027516,1.2928128,1.5543392,-0.05890951,-0.8711646,0.6109506,0.3536557,-1.0228795,0.07648752,-0.46527272,-0.06504087,-0.6492077,-0.22227447,2.4453623,2.603307,0.11575397,1.601268,0.35541162,0.76601386,-2.6437151,1.9613091,-1.1078966,-1.3743933,0.77767766,-0.39565018,1.487659,-1.1248684,-1.6245085,0.010618286,-0.08588105,0.3409789,0.6055693,-1.6974784,-1.1748813,-1.5107918,-1.5815701,1.3771024,1.290003,-0.103650525,1.3288944,0.83126813,-0.026159903,0.84859115,1.4128739,-0.33591348,-1.0276328,2.4209056,-0.63325167,-1.8726046,-1.0069376,-1.2582009,1.2269747,-0.5783137,1.2119944,1.0306892,-0.8477118,1.7295595,0.2922009,0.3335799,-0.7155897,1.0448298,1.0205383,3.6394727,-0.3170033,1.0108197,1.5984839,-0.95363057,0.5422101,1.6298623,0.54455155,-0.16238572,1.6719362
Caballito,0.6629241,0.25722703,0.7262402,0.7125166,-0.70866185,0.0817887,-2.2169116,-0.36716825,-0.5612081,-0.1907704,0.24485072,-1.1777256,-1.4569677,-0.77738196,1.1800635,-0.81086546,3.1517234,-0.34511644,-0.69310945,0.6946587,1.5828661,-1.0848849,-0.5203594,1.136638,1.2284131,-0.3402537,-0.98468864,2.1925101,-0.4571544,-0.71975756,-1.2314459,-1.0493852,0.59586155,-0.19559784,0.2015187,0.91168404,-0.99376386,-0.5662748,-1.0596898,-0.6484274,-0.16447315,-0.69913435,1.4803395,1.8034765,0.37151492,2.702006,-0.1738513,0.95280087,-1.133211,0.78935003,-3.8650124,0.87936795,-0.10095687,-0.22608058,-2.559909,-0.37800047,0.89426166,1.1131024,-2.650067,-1.0483172,2.1701972,0.69334215,-2.0925467,1.542286,-0.27813932,2.229607,-0.19889304,0.55170774,1.2372302,-0.79990405,-0.7034282,1.7994839,0.63221365,-1.8616232,1.6782355,0.3539731,0.32454246,-0.01114264,0.34075993,-1.5318679,0.605404,-3.2016246,-0.06604602,0.73275745,0.8241471,-0.77659816,2.34424,-0.31926414,0.5030991,0.37946317,0.43792424,1.5447738,0.3348999,-0.6319081,-1.3040277,-1.1960611,-1.0523043,-0.48431528,1.8905394,-1.4969574
Cafayate,-1.7758756,-0.104939155,-1.7288417,-0.24539797,0.767453,0.37458253,1.1861129,1.4413552,2.0156178,1.7945697,-0.40635753,1.5542531,-1.0219643,1.2303609,0.57058764,-2.333479,0.9050956,-0.3931897,-0.94602,-1.4085156,0.9436309,-2.087801,-0.28403193,-0.31353688,0.10027449,0.103317775,0.8419536,-0.985619,1.1597247,-1.4346216,0.14640817,-0.9720327,0.1903841,-0.35624143,2.778818,0.6234742,1.2142558,0.22337437,-0.045860626,1.1212975,1.9272825,0.8517922,2.0333207,-1.4724532,-0.38735807,0.24930353,-0.8036517,1.2597448,2.9070356,-2.681855,-0.51313233,3.858519,1.2867773,0.22378114,-1.3270773,0.33917356,1.7626896,1.7624236,-0.013394838,-0.2996562,-0.86206853,2.557747,-1.7767477,-1.261251,-0.02032558,1.6377909,-1.8362802,0.67033356,1.8339754,0.097380325,1.6533288,-0.39126793,-0.88977176,-0.7276796,0.8381246,-0.63390285,1.1852342,0.3607611,-0.45064127,0.90686363,-0.06101795,0.5512652,-0.921269,0.7242533,1.0834519,1.3161398,0.76356363,-0.42898858,0.20090158,-0.039423104,2.9036703,-0.09463479,1.4705397,-1.0884756,0.9354819,-0.49830192,0.24826047,-0.094972596,0.7950171,-0.9038948
Calmayo,-0.10723919,0.45531195,-0.06648302,-0.9727808,-0.61552995,-2.3250086,1.9814548,0.16199471,-1.5066198,-0.68231845,-0.96421546,4.6614704,0.054490928,0.883321,-1.5114064,0.13968942,-1.4388324,-1.5229076,0.5061112,0.5706628,-1.276824,2.501483,0.026343523,1.0659368,-2.711413,1.2541686,-2.2222066,-0.3967807,0.9534169,-1.3716179,0.22067289,0.4586304,0.28728285,2.912454,-0.21612458,0.8568403,3.5093205,-1.1358849,0.010079755,-0.5615503,0.002487993,2.4491735,1.1168191,1.3037255,3.1523015,-0.33164722,1.0492046,0.026752906,-0.35376778,-1.5813051,1.8863004,0.7614179,0.1718224,2.0468569,-0.21504137,-0.41562322,2.6018963,4.3490367,-1.7320015,0.22193678,-0.4268505,2.5151196,0.03106008,-0.19773026,0.20091976,1.4303353,-0.13015172,1.5434192,1.3766435,-0.0511467,1.4663746,1.3185884,1.8207734,0.10276423,0.47111133,-2.2794342,-0.5782783,-1.1357524,-1.7344443,-0.9775053,-0.5895206,-0.6173017,3.1863961,1.0043026,2.6248994,0.24372415,-1.712971,-2.9764757,-0.8543287,0.7576283,1.5240897,-0.7192319,-1.3894753,2.0303764,-1.530576,2.0589054,1.25125,0.35396105,-2.4756155,0.22566733
Camet,0.10674408,-0.27264157,2.2192812,0.7829095,-1.3082937,1.9654168,-0.942207,-0.74347067,0.26550406,-2.1795566,-2.3548744,-0.8750868,-1.3943396,-2.2702963,-0.44291794,-2.0966856,0.053242784,-2.4777145,-0.12609984,1.6149389,0.18766311,-0.102465905,-0.45341247,-0.32166335,-1.8041526,-0.504712,-2.0275145,-2.0790918,2.3635855,1.1885773,-0.24174386,1.2541858,-0.88294023,0.56477207,1.4473184,-1.8863608,2.2823174,-1.320186,0.06475148,-1.4517472,1.3574684,0.86151505,2.0455303,1.0049454,2.3054812,0.6038366,-1.5264626,0.7373923,-0.19526628,-0.28606996,-1.660489,2.4861512,-1.8134862,1.2402337,-1.2698884,-2.6386418,-0.750515,2.2003427,-1.2611741,-0.8520136,-1.5257951,0.34633812,-1.9636574,0.44128326,1.6816595,-0.2560576,2.1586554,-0.17175089,-1.7930963,0.17151168,1.5822271,-2.602516,2.3453605,-0.21452558,1.0067697,-0.87371624,1.4905089,-2.5481977,-2.135756,-1.9973122,0.74922055,-0.26836568,2.7507637,1.6663153,1.0374694,1.0541826,2.119221,-1.140765,-0.52452767,1.5369524,1.6046672,0.26611996,-0.62245,-0.4036484,0.6390696,-1.2561169,-0.74883544,0.46752042,1.772834,-1.2618406
Camet Norte,-0.9879927,1.0581567,-2.2493932,-0.9793294,2.4805818,2.059923,0.7456369,1.3288002,-0.93807083,0.9121218,-0.5775972,0.5454022,1.7572,0.9101374,-0.8346424,0.4764409,-0.4930919,-0.64735794,-0.6854273,-0.78352916,-1.7243959,-0.221109,-0.9862456,1.1644211,0.615029,-0.28697017,-0.5851287,-0.08622787,-0.8834925,-1.521829,1.9818743,0.33874345,-2.292618,-2.18083,0.7790927,0.030685334,-1.2359887,0.61140305,-1.9862204,1.1447324,-0.96749467,-4.221144,-0.8205102,-0.085270844,-0.45629555,-0.8496103,0.87660015,1.0400255,-1.7552712,-0.24424946,-1.2675256,1.6299092,0.12707074,0.3974413,-0.33463,1.206039,-0.64570665,-0.42568037,1.1486267,0.82924026,0.55867493,-0.7456377,0.93534774,-0.6152441,-2.3177273,-1.1471329,-0.73976064,2.0665736,-1.6112804,0.7445189,0.88850623,-0.11821928,-0.5419602,-0.8215794,0.15698186,1.6643164,0.44143662,1.1889998,0.5312284,1.1456641,-1.6031278,1.901118,-0.22404599,0.18398674,-0.5573057,-1.1600758,-0.7525606,-0.02900686,0.3616167,1.0225831,1.342359,0.45689154,-0.240855,1.3498955,2.9760685,-0.28406903,-0.2835607,-0.6084451,-0.31173673,0.83647573
Campana,-0.84667486,0.23230073,-2.8573601,-3.487419,0.91733295,-0.97798413,-1.1443899,0.0614703,0.6275712,-3.1743965,2.7735124,1.6769372,-0.58724296,-1.6336173,0.021331597,2.4652114,-2.0080936,0.36022747,-1.0936409,-3.044809,-2.2839477,-2.2960207,-0.90339947,-0.69379914,-1.9627603,1.6073672,1.3353581,-1.5736904,1.9414904,0.13354439,-0.20425878,0.08020193,-2.2791197,0.93540543,-1.6694511,-1.0954587,0.8334755,0.3203016,0.42761937,1.4602777,-2.7675257,1.75096,3.0847943,1.6180269,0.2993216,-1.254116,0.70118153,-1.3509237,0.27063513,-1.0796449,1.8637526,-0.6526336,1.4660816,1.2661098,-0.25401348,-1.7631096,1.9070872,0.08097061,0.12916538,-0.97110623,-2.1618724,-1.7120987,-0.36703154,-2.1028988,-0.7060683,0.85156864,-0.32841808,0.28004986,-0.23289673,-2.154586,0.077902846,0.48803246,0.8684845,-1.2080019,0.20547944,0.2430349,-1.17771,-0.58939755,0.8214385,2.26096,4.6711655,-1.9367704,2.631762,-0.18918832,2.3467007,0.3783318,1.4812986,-1.7074574,-0.5917008,1.9463053,2.1684642,0.3926245,1.0084239,-0.5911453,0.08646807,-1.440066,2.2183142,3.4601068,0.4839526,-1.1304951
Campo Quijano,-1.3606756,-1.1906444,-0.06742923,1.0591518,0.79675144,0.717639,-0.1317918,-0.60357565,-1.5506262,1.4749117,0.24965093,-1.1368349,1.1972401,1.4266095,0.28347334,0.5696283,-0.6159142,0.8339322,1.0165342,-1.1541176,-1.873534,1.7531439,-0.77961177,2.984557,0.15764593,0.40803093,-0.14482562,1.1929271,0.63230294,-1.2739291,3.2477763,-0.27210817,-1.313135,-0.62745076,0.86507356,1.197191,0.12148012,-1.2519919,-0.5988534,0.61385906,0.48823434,-0.107866704,1.2437917,1.0796931,1.1646404,0.42647806,0.7954686,-1.2122436,-0.49837068,-1.590075,-0.2259243,0.95206976,0.32281944,-0.18029796,-1.4128636,-1.4987924,1.1446363,-1.1314948,0.9128155,0.10775606,-0.41239005,-0.71095526,-0.7024721,-0.96882784,0.6670456,1.2811102,1.4940515,1.4735,1.2498761,-0.0160402,2.3248315,-0.45177013,-0.16235065,1.509242,-1.9870435,-1.7914457,0.6825584,-0.17253079,0.57439655,-1.5594325,1.1873764,0.0064478517,0.9673386,-0.15512791,2.436842,0.17860088,1.7030324,-0.026799789,-2.503638,1.9308686,0.426375,2.4158752,-0.49041653,-0.17373537,1.1627922,0.96736544,-1.1878943,1.0924815,-1.2909632,-0.24599855
Candelaria,0.24699284,-0.58651334,2.515392,0.28860945,0.9923939,0.28449404,-1.851971,1.4772251,-0.9163166,-0.6838744,-0.092565104,0.8428679,-0.19223051,-0.3746402,-0.04145623,0.009197456,-0.80953914,-0.94799703,0.1972653,-0.5180581,-0.51962316,-1.9034863,0.5861832,0.04486177,-0.42191273,-0.53850293,-1.0010653,-0.8931598,0.1783251,0.90534925,1.2781712,1.323123,-0.17096938,0.391313,1.4432195,1.1645335,-0.58128923,1.0797081,-0.54361606,0.61352015,-0.79985285,0.24875927,-1.050003,-1.8081149,-1.1027845,0.45749536,1.0143099,-0.7969881,0.30085337,-0.43011612,0.6518258,-0.25306758,2.6236937,0.24525867,-0.052478496,0.34791374,-0.23616508,0.2579338,-1.9399102,0.44838285,0.38188592,0.22246993,0.5292965,-3.0105712,-0.4080118,1.37241,-1.3427142,-0.51156175,-0.21141958,-0.3883928,0.2521914,2.7091715,-0.58891225,-1.292981,-0.2089904,-0.45122817,-1.2652695,-1.5705398,0.5126675,0.6175566,-2.2448127,0.36454406,-0.67838556,-0.99312764,2.2568583,-1.6418099,2.2678378,0.7190246,-0.5257844,0.10075025,2.0232105,0.13437966,-0.56149274,-0.44565403,-1.0531669,-0.98279434,0.8587883,1.3756562,-1.3522359,-0.43694305
Capilla del Monte,-0.416762,0.36336866,-2.822903,0.506195,2.2083867,0.6280374,-0.81224895,-1.3058643,-1.9291469,2.4680476,-1.5178506,0.10832099,0.3891372,1.2691312,0.7691103,-0.28040522,1.4183927,1.6734287,-0.39638677,-1.6697114,-0.0032348582,0.5824781,0.71550053,-1.4213034,-0.509366,0.58047634,0.49155927,0.6315296,-0.026874896,0.5280347,-0.7696283,-0.49328944,0.06426944,-1.2878938,0.1478797,-0.33166674,0.33914572,1.298577,-0.3240434,1.4472537,-0.5998369,0.6441248,3.4105752,1.024354,1.0523223,0.013956288,-0.13245307,-0.0045618387,-0.32560843,-0.6088354,-2.330559,2.3135028,-1.3181089,2.1329126,1.3966811,0.20982829,0.5151293,0.8226561,0.5056189,-0.3559164,1.3493984,-1.2617402,1.9791687,-0.426271,1.2168499,0.5096119,0.29407296,1.2411381,1.6061343,1.1023562,-1.6853476,1.5916697,1.2594295,-0.83209527,0.28204986,-0.6167723,-0.68432224,0.9708246,1.5030084,-1.6437004,0.9980229,-0.93741137,1.4517467,-0.6822708,1.5658535,0.9857676,-0.9551655,-1.0446801,-1.1220744,1.7483788,-0.05531098,-0.21232964,-0.329774,-1.4746206,-0.9684869,-0.46372575,-1.168134,-0.75510955,1.4699994,0.60215706
Capital Federal,2.0357924,-3.5728023,-0.7213744,-1.7748016,0.23401718,-0.58895713,0.41513255,0.9441758,-1.0311506,-0.5541932,2.489823,-2.7441967,1.4630343,-0.88616604,0.49858505,0.23643413,-2.9766293,1.1331769,0.37949547,-0.011591143,-0.14670618,1.076657,0.55416065,2.0609949,2.7242885,-0.57313067,1.8375489,2.172136,0.6475313,-0.47297016,0.6675424,1.0659702,0.17850229,-0.58014333,-1.8653138,-0.914934,-0.7396298,0.8565964,-2.6518817,-0.5399098,-1.9387661,-0.112736955,-0.43671703,1.7438196,-1.1596209,0.5850823,0.010289466,-2.3214083,-3.1247413,1.2554846,-1.0108058,-1.0086921,0.6000519,-0.01750312,0.41109124,1.4864044,-0.70053273,0.078391664,-0.7208511,0.27976894,2.2991912,0.90090626,-0.022163153,0.8108514,-2.2726164,0.18287279,-1.1301379,1.4306194,-0.5985424,-0.75852317,1.3992122,1.879088,-0.08606523,-0.17953134,2.2660728,-0.8410482,-1.0882921,-0.3030836,2.1467614,0.2907393,-0.18386848,-0.045059122,-0.8069332,0.103651375,-0.6243717,-1.58084,-0.31127524,-0.38995185,0.44902503,-0.3895885,0.059972044,-2.0843804,0.38593918,-1.0197135,0.3686185,0.37021282,1.0378883,2.1546824,-1.8979753,0.017834706
Capitán Bermúdez,-1.2398484,1.5290214,-0.9231325,-0.17066967,0.14382914,0.5002751,1.9893203,-2.3956444,-0.41371414,3.4917836,1.2536525,3.6971817,1.368659,-1.4321929,0.64803696,0.75646436,-0.70194316,1.3269998,0.4105414,-1.0009363,-2.2341368,-0.5589003,-1.7711092,2.7335777,-1.7998298,1.1818746,1.1353343,0.47334388,1.3459175,-1.8630052,0.7675614,-0.7664685,0.2813566,0.2886977,-2.3239665,-1.1539164,-0.40951642,1.0086123,0.48039722,1.7937782,1.1626254,-0.3378146,2.8908966,0.89351815,0.08489672,0.005910091,-1.1076444,0.008177722,1.4247856,-0.8914049,0.35893226,1.0417718,0.83871585,-1.2562505,-2.3996453,0.7007324,0.55396986,0.6319161,0.8155354,0.5569545,-2.6595874,-0.346675,0.0909573,-0.55988604,1.573473,-0.099824585,-2.3557062,2.766858,-1.4272537,2.0459018,1.7509727,-0.22163239,0.96457374,0.20528859,1.3843641,-1.8551562,-1.9292684,-0.3726742,-0.9942491,-1.2936234,-0.32601404,-1.2284974,2.3565905,-1.2917459,-0.36136526,0.017236521,-1.0654866,-1.9621664,-2.3870945,2.4293633,1.1287198,-0.4198629,-1.6881101,1.6543912,-0.7111275,1.9507204,-0.7409339,0.12662365,-1.3413746,2.0995107
Capitán Sarmiento,-0.31906697,-1.1524887,-0.62627476,1.3028749,0.37784138,-0.7484956,-2.0519464,-1.498031,0.2697081,0.6676126,-0.8197664,-0.96679306,0.19384591,0.63270825,-1.1492319,-0.79281604,1.8823724,-0.024000779,-1.5708363,0.4207623,1.3943659,0.9845945,0.023905518,0.44138664,-0.002059682,-0.58175457,-0.25752553,-1.1206515,-0.0053704213,-1.2160286,-1.259295,-0.6254207,-2.8006399,-0.8151651,-0.3145578,-1.4856544,-1.5606598,-1.6729681,0.31546885,-1.3326665,0.004055119,0.20994931,-0.70250136,2.0870054,3.090121,1.1784204,-1.1872149,0.87725884,-1.060889,0.94413084,0.10678324,-3.0000465,-0.8782395,-1.5236034,0.6783559,0.3395117,-0.546186,-1.9347404,-0.66500276,1.68861,1.0642575,-1.5065278,-1.1895812,0.51747954,-2.5452552,1.2732512,2.4604657,-1.4695655,1.0003946,1.92345,-2.148997,1.145028,-2.3488069,-0.07838735,-1.5193762,1.9783314,0.61530495,-1.912769,-0.24480055,-0.20683266,1.9129308,1.0596114,0.98213875,-0.24837765,-1.0426797,-2.6992807,1.0972122,-0.67746884,0.9884065,-1.6509206,1.1197437,1.3498752,0.57836485,-1.907803,-0.98615485,-0.78266245,0.7064608,-0.47248062,-0.19236857,0.06349903
Cariló,-0.40147677,-0.5832916,-0.8572989,2.147162,-1.2975074,0.9997215,-0.13656229,-1.0901812,-0.34819347,2.3161764,-3.6643376,0.54965,-1.2176276,0.39958513,1.3024964,-3.0721772,-2.3864686,-1.4561223,0.68549347,0.4659926,-0.52706367,-0.91467744,-2.5409741,-0.34940866,-1.4173939,-0.85548025,0.6045003,-1.6132383,1.822173,3.7658312,-1.324718,-3.5631917,0.41664577,2.1384437,0.25923753,-0.7614858,-0.9477639,-1.4753197,0.8122328,-0.04494774,-0.41885483,1.9058136,2.2160282,-1.2189236,2.0729773,2.786679,1.2370424,0.885524,1.780911,3.2642593,-1.5961015,1.7542043,-1.290157,-0.91283983,-0.69151103,-2.4060273,0.8309318,0.608023,-0.478798,-0.5053729,-1.5907573,-3.0721943,-1.8336953,0.7770358,-1.5583502,0.68120927,-1.171712,1.344486,-0.1373584,0.8154525,-1.2119446,0.81728774,3.2316258,-3.4738455,1.4875269,-1.0753142,1.4895855,-2.451719,-1.1709554,-0.46706215,0.917592,-0.9385065,3.477638,-0.29092777,-0.2960064,1.8106505,2.4261162,-0.19694151,1.0870044,0.017080788,1.8440735,2.365197,-2.1477504,1.5251703,1.5468892,-2.0485826,0.121606015,1.241404,0.778488,-0.35854834
Carmen de Areco,0.9903083,-2.7161875,-1.0608999,-2.3846166,2.735752,-1.3023726,-0.37314042,-0.6526732,-1.9885803,0.1469422,-1.0921726,0.48694175,1.8170136,-0.81190217,0.17400423,2.34362,-1.2789807,-0.45749494,1.6215672,-0.27081126,-0.30603245,0.9476111,0.16472568,1.048265,-1.1293496,-0.7676707,-0.7549591,-0.006808962,0.64766383,0.5400708,1.591376,-0.50880736,-2.2570283,1.6837887,1.2548269,-0.49896762,1.7716415,-2.2786164,-0.3401438,0.33237123,-1.5577046,2.1644454,0.08963334,-0.7342872,0.5644716,0.79544014,-0.14046966,1.7515142,1.525669,0.8311479,1.3770148,-0.454624,1.4420912,1.980183,0.4154325,-2.0531034,-0.175056,0.27643663,-0.4132015,-0.8622879,-0.0693948,-1.9972287,-1.2164963,-0.7418068,-0.7329408,1.8362172,0.6538422,3.0690477,0.3707615,0.07831394,1.0350319,1.3862202,-0.07732519,-1.0120524,1.8421205,-0.009111297,0.8569928,1.1619233,0.7075724,1.1837872,1.9327728,-0.7491873,1.3509563,-1.2218972,1.3038715,0.060174566,-0.3980782,-0.794284,-1.5129274,0.5091469,0.12505062,0.30465704,0.9732645,0.42928472,-1.3024603,1.5654681,1.8005309,0.6578058,-1.4170859,0.8552383
Carpintería,-0.91803163,0.56272084,-1.540134,-0.45315558,-2.7466247,-0.103602625,0.7059235,0.16027758,2.8081267,-0.8599426,-2.2118053,1.0784308,-1.5145711,0.13800056,-2.1839976,-0.27815282,0.66277766,0.48432022,-0.71663284,-0.90835536,-3.5859358,-1.4785377,-1.7888254,0.12790364,0.9562677,-2.5102437,0.0344249,-0.57109463,3.935593,0.60112286,-0.8575213,-1.6661216,-1.157403,0.7174057,-0.009151487,-1.0158277,2.7859812,-1.1248463,-0.87727267,-1.4593896,1.124283,1.7888103,0.6252464,0.7293814,2.8609383,0.05562589,-0.87274516,-0.85006154,0.70217395,0.42860642,1.3727748,2.7156513,-0.3644659,-0.7888454,1.4164842,-3.7037313,2.6419861,-0.81369585,1.0703875,2.8525321,-1.067824,-1.3011336,0.47416788,-2.176117,-0.5066756,1.4037718,-0.03687136,0.7271454,1.0307289,0.059387114,-0.4384153,0.86226547,1.8235788,0.27797648,1.3106852,1.3224043,-0.77820796,-0.84998304,0.37376544,1.8991355,-0.3272183,0.8488158,1.8489254,-0.43209764,1.576076,1.3476808,-0.019049324,1.632874,1.7364572,3.0651262,0.8642029,1.2276863,2.0364082,-0.01659767,-0.054445844,-1.6584804,0.18542014,-0.42266363,-0.99278855,0.8169365
Carrodilla,-1.2365899,-1.1075416,-0.43088096,0.6826551,1.5458143,2.022099,0.7937768,-0.4604499,1.9145159,0.3115472,0.17240635,1.5298836,0.2818881,-0.6165676,0.5156897,0.16120552,0.004487518,0.39460674,-0.39637682,-2.2584698,-0.41529387,-0.88928264,-0.20782594,-0.12276281,-1.04884,-1.9384272,1.9010452,0.5066048,1.9647367,-0.77650887,0.0107382,2.0364833,-1.4395741,0.43703577,-1.439749,-0.929284,-0.5074728,-0.009197068,-2.0470276,0.8209749,2.6169634,-1.0333117,1.5307919,1.556739,1.6514727,0.8851122,-0.9387563,-1.0908824,1.8801999,0.5316995,0.04305003,0.25535992,1.2053899,1.8480163,-0.63840896,1.1892889,0.25730807,-0.7426063,0.5183824,2.0109313,0.76404566,-0.2274662,0.61785907,0.124779865,-0.93229413,-0.59681284,-1.6151944,0.5502106,-0.56743497,-0.09464302,0.084375344,-0.45901296,1.3725097,0.2758356,0.5024713,-0.77822,-1.6040235,0.17468306,1.1299397,2.4482832,-0.6561113,1.2095056,0.20693725,-0.5740952,1.942967,1.4267911,2.1630654,-1.3822826,0.5863095,2.166647,1.9965801,0.82912225,1.8077078,-0.31291452,0.9545899,-0.24301457,-0.13999134,2.278723,1.0062453,1.9517405
Casa Grande,-1.5812266,1.6395558,-1.8822073,-1.6502374,-2.723444,-0.56010425,1.4632847,-0.109096594,-2.4772644,0.13258125,0.10933259,1.2058185,0.16299966,0.051060278,-0.15278706,0.05707638,-0.57137537,-1.5410689,1.3665067,2.561252,-0.11709241,0.3808528,-2.4175532,1.171436,1.6852368,0.59076846,-0.75316966,0.21158025,2.1675384,-0.8240302,1.3872416,-0.92134374,-1.4813943,2.331257,-0.27203125,0.7641215,1.3486573,-0.7748845,-1.0710883,-1.1073899,-1.0031102,1.4928001,-0.23456042,2.7490132,3.322739,-1.8606126,-0.83058864,-1.9797752,0.36245373,2.3992202,1.5721823,-0.8560943,-0.2583316,0.6299415,0.5163163,-1.9814228,-0.9646233,-0.21356039,0.03540285,-1.1935797,-0.23098667,0.3720124,-0.64239126,1.2341336,-1.943249,0.38769457,0.6600313,1.2592343,0.33306146,2.1428363,0.54009515,0.5015791,-0.22841434,-1.6711192,0.7585132,-0.77302706,-2.7576897,0.68013185,0.5287369,0.20461239,1.4905317,0.57907915,-0.42664945,-0.72321856,3.3515143,0.529618,0.16830753,-1.8505566,-0.8528907,-0.35113287,0.009296036,1.0903797,0.6731216,0.78822887,-0.7504193,-1.1961706,1.5108087,1.8234553,2.4197721,-2.1645927
Catalinas,0.47239178,0.82564974,-1.8774506,-0.8902246,0.62030554,-0.6462281,-1.9501718,1.1726738,-2.5790412,-1.2608114,0.09714609,-1.1265508,0.20051561,2.0116444,3.0984368,3.8682532,-1.3286129,0.59215415,-0.5362441,-0.03819678,0.08292447,0.129248,0.1478741,2.4521706,-1.1016417,0.293912,0.13360606,0.17635553,-0.99714315,-1.9280509,-1.2758636,0.27163363,-0.25823024,0.3669205,-5.248176,0.9843484,1.18785,0.93771136,-0.21793658,-0.55690306,-3.2180848,1.4644349,0.58754647,0.012461078,-1.1327819,-1.218951,3.562645,-0.7888655,-1.7569689,2.0786533,0.996646,-1.7054937,1.1728597,-1.7560569,1.5736051,-0.68361115,-2.0385723,-0.88054276,0.24830976,-1.4972821,2.1269302,-2.4263828,0.07165237,1.5628396,1.5554801,1.7514415,0.1790359,0.40773273,-0.989645,-1.650515,0.18342562,0.42926383,-0.21050026,-0.35938343,2.4077218,-1.1143025,1.2122705,0.08247567,2.628316,-0.00299884,2.1034558,1.2695085,0.5483752,0.11852585,-0.50547725,0.1580501,0.50732183,0.13249254,0.38250497,1.413566,-0.1452094,0.021953404,0.6945484,-0.049517974,-0.9593235,-0.5726618,0.29120886,0.6770964,0.62428004,-1.5205009
Cañada Seca,-0.6201842,0.28954327,-3.1582913,0.14840467,-0.9359169,-1.2291535,0.82024217,-0.0069442536,-0.9513548,-0.91115993,-1.3473488,-0.16342904,1.2822363,2.1940057,1.8331097,0.05513071,0.10973086,-0.21478765,-1.0702988,-1.0205531,0.7616716,0.25368163,0.26109996,0.13073948,-0.15879461,0.29126742,1.4160328,0.69010717,0.99407446,2.522705,0.20697926,-0.37710956,-2.720603,-1.2754542,-0.6792521,-0.038546935,0.60913146,0.093931064,-0.041452963,-0.69961977,-0.09550544,1.7977341,0.11999255,-0.7847555,0.97834843,-0.42762423,1.2085376,0.6796159,-0.11261181,-0.9151441,0.8416752,-1.1322782,-0.64753115,-0.7085046,-0.16259378,1.0558598,0.850738,-0.54043996,-0.76590425,-0.6211709,-0.051082093,-2.3032591,-1.7229561,-1.2255332,-0.8222002,-0.34730956,0.17915179,0.32508895,0.5696645,-0.87601435,0.61472857,0.58748686,0.5732642,0.06954573,0.053697355,-0.595311,-0.90767264,-1.0978985,-0.39227623,0.3103593,2.1477654,0.62760067,1.0158327,-0.27432573,-1.263515,0.0071157627,1.120526,-1.7112737,1.3606694,0.6535927,0.6324805,0.35850185,0.09293655,-2.7271323,2.426934,0.8671792,-1.7922739,0.41729182,0.012689729,0.30785692
Cañuelas,-0.6377162,0.5487209,-2.64484,-2.6087472,2.003112,0.7967432,-0.34537596,1.4682572,0.06398406,0.25145575,-0.4203644,1.9787099,-3.4051452,-0.26355055,1.647709,0.08867169,0.7136412,0.10001115,-0.9864211,-1.4465305,-2.341532,-2.2031612,-0.54481643,-1.1179557,-1.5778955,0.59955156,0.40710986,1.3424464,1.718222,-0.2754501,0.23281337,0.56300294,1.0853026,0.5956708,-1.2667204,0.1953012,0.3657369,0.88639176,-0.22310558,2.1513312,-0.017914554,-0.3101141,0.35264146,0.9220435,-2.3520746,-1.0659338,-1.2140886,-0.293305,2.4491115,-0.32595456,-0.8500019,0.99899644,2.2203894,2.5546582,-0.885064,-3.1194112,0.057860248,-1.9372408,0.8652744,0.9502796,0.6823188,-0.5155066,0.77307165,-1.4780314,-1.0655243,-0.9944238,-1.7617749,2.506945,1.6487437,-0.68477863,-0.25154436,0.5907272,0.30675763,-1.2964005,0.24250932,-0.25882336,0.85708016,1.0965881,1.3528523,2.2500978,0.090857245,2.1541376,0.9960134,0.38654804,1.469292,0.18869461,1.7010406,-1.6203533,0.11622524,1.1166037,1.3245022,0.64897037,2.2776003,0.85002464,3.1261747,0.85779744,0.11653928,0.6424301,0.8645956,1.1448138
Centenario,-0.62485427,-1.8163589,-2.550366,-3.114422,0.42896283,0.43023303,0.042788778,1.5226648,-1.5632601,2.3874898,-1.3584008,2.0118914,-1.8735646,1.3536626,-0.029578537,1.2544259,1.5788347,-0.9618769,-1.1253593,-2.3981133,-1.1620522,-0.49346864,-1.4256941,-2.2445884,0.24074714,-0.823057,-0.081293166,1.0427498,-0.42667776,-0.7089824,2.3220053,2.3863752,-0.33304033,0.37941304,-3.1515267,0.26708665,-0.8817604,1.5455531,-0.46318093,0.26091474,2.015519,-0.5518692,-0.19602786,1.5405467,-0.53027546,-1.8480617,-2.5003288,-0.54043454,0.90088797,-0.14318775,-0.6613075,0.716177,1.8340157,-1.2069373,-0.35621303,0.94475645,-0.6775731,-0.7939969,0.7591191,-0.03785996,0.93637925,0.39821428,-0.013180477,-0.5598363,-0.8526645,-0.32739303,1.2565956,0.71337265,1.0095912,0.6781878,-0.9175671,-0.00519529,0.31934497,-0.41459057,1.5877014,2.5386033,-0.44610763,1.0885683,0.829488,0.70188195,-2.5769773,-0.18557638,-0.12844077,0.120666616,0.9377505,0.020420436,1.68028,1.0719653,0.26433575,1.3399425,0.54953295,0.37848437,4.0894127,-1.4476513,1.9488363,2.4250817,-0.14325318,-2.919105,0.720041,0.7864432
Centro / Microcentro,-1.0243874,-1.0937545,0.009597482,-0.31409976,1.3463653,-1.6879907,-1.5558497,1.5873076,-0.32390258,1.178167,-0.70575565,-1.4967796,-0.15229167,3.3913722,0.86631626,1.5353597,-1.3000286,1.872045,-2.4880202,0.49225852,0.8482742,1.2199757,-0.11975322,2.491048,1.1598058,1.5594788,-0.15258811,1.040448,-0.46225274,-1.4162945,-0.66796386,0.42061782,0.01705887,-0.09240707,-3.1410217,2.0249875,1.6596073,1.1700441,-1.7238116,-1.4689803,-1.6105448,-1.5026292,-1.3253124,0.59963703,-1.3542739,-0.62100655,-1.4430414,1.099455,-0.5222978,0.8841855,-0.21927437,-1.4852035,0.6955189,-1.2098206,0.042774446,1.2255725,-0.13218611,-2.276028,0.5680857,0.0019072832,0.8521395,-2.0675442,-1.0370963,1.6216799,-2.5738025,-0.8053855,-0.9797233,0.31342858,-0.92571807,0.39731592,-1.6716241,0.72739524,-1.5250385,1.4162805,0.82313716,2.8222418,1.7631626,-2.2901943,1.8017722,-1.0924807,-1.3078209,0.77133065,0.20709479,1.5362147,-1.6403632,1.1401376,0.11831963,0.40215343,2.0844083,-0.64185625,-0.12582777,0.70396936,0.059538227,-1.9910493,0.2504593,0.5912856,0.37647042,1.0040635,0.21846493,0.37621126
Cerrillos,-0.55483484,-1.6872416,0.09187677,-1.0042254,0.7990906,1.0709972,-0.5953619,1.1653768,-1.8839276,-1.0310788,0.20123656,1.1624523,-1.3600484,0.11551415,-1.6553998,2.634137,0.6218642,0.6182724,-1.457845,-3.3978944,-0.9534765,1.1987597,0.033524964,-0.7830801,0.7612024,-1.6051247,1.5535159,-1.2577524,2.059184,-0.21633746,1.0753071,0.14215933,-0.5886411,-0.1346047,-3.3025668,-1.6899312,-1.4329636,2.0296755,-0.17513624,0.42974484,1.2771063,-0.15600361,1.3337363,0.14952236,-1.6388879,-0.5183988,-0.28172722,0.19534072,1.7621332,-0.24543817,-0.9376777,1.1636131,0.25987387,0.8245631,-1.879538,-0.48533785,-0.9698612,-0.78886724,1.0975118,2.4080367,1.8200959,0.2189113,0.83108544,1.7288964,-3.2350385,1.1430748,0.820279,2.2380924,2.9309754,0.84840274,-1.17492,-2.0745046,1.4676919,1.0515995,-0.16972159,0.97613204,-0.637747,2.1739542,0.38419667,1.6410004,-3.1661751,1.6226159,0.489476,-0.5932499,0.17415006,-1.4776572,0.22402179,0.28972405,-0.5859856,1.3265182,0.97094625,3.75909,1.0200576,-1.805347,0.3204765,1.2473996,0.4800352,0.45498043,2.1674826,1.3730901
Cervantes,1.8452171,-0.17714088,-0.35231727,-1.3433133,-0.3696076,0.43622947,-0.8895414,-1.0895029,0.8166982,0.5426178,-1.976266,1.2244866,-1.1342044,1.064429,-0.7154458,-1.5458922,1.09231,-0.43681154,-0.4683981,-1.7317181,-2.7252643,0.48078725,-0.8635972,0.9763328,-1.573234,0.44037887,-0.030724104,0.70463985,1.4342524,-1.0453411,-1.2165414,0.30174786,2.7378697,0.824614,-2.7565815,4.182713,2.202522,0.91921026,-1.2219236,0.05582173,0.66764194,-0.3875046,0.034461387,1.0970515,1.685385,1.7312884,-1.5058699,0.90479416,-1.6576267,1.4012662,1.3977873,3.508674,1.12481,1.0409552,-0.49701008,-1.0668924,1.3795782,0.9520479,0.276391,0.16662408,-1.1585323,1.1013438,-0.13302901,0.26361018,0.14737608,-0.23120427,-0.5143457,-0.26100615,1.0118759,0.7078624,-0.8643009,-0.15264909,-1.433226,0.0464058,0.31448933,0.6919844,-1.5412352,1.8543335,-1.4302635,-0.7841095,-0.6481762,0.12562498,-0.6290877,0.025274035,0.8653514,1.2334533,0.56794715,-0.9878148,1.2427956,1.6945586,-2.5688465,1.4454696,-0.2663249,-0.3927566,-1.6709108,-0.14230461,0.4947377,-0.35713458,-1.2540176,0.43765065
Chacarita,1.4980702,0.6503198,-1.4628453,-0.23054175,-0.032830212,0.1481243,1.0648909,-0.83800364,-0.19404393,-0.5943009,-1.8669579,-0.46595478,-0.2868522,1.8825606,0.3189972,0.02344929,1.5134534,-1.1537774,-0.9318266,0.16875686,0.33395952,0.9098686,-0.031099139,1.0721866,0.7206016,-0.24408232,-0.69733953,1.0871876,-0.53217465,1.8094976,-0.05696375,0.7533109,-0.07312071,-1.5646578,-0.55594444,1.3153452,0.56679195,0.22469707,0.03603621,-0.5287164,-0.91619855,-0.5207358,-0.6191472,1.7224636,-1.8077487,0.08352193,-1.6751499,1.0023504,-0.63504475,0.20411572,-2.8857608,-2.4757466,2.0596728,-0.044568263,-1.7100569,0.6843024,1.3185642,2.2347546,-2.4716158,-3.2145374,0.8142019,-1.103892,-1.5895342,0.4900412,0.015609031,1.3702005,1.5902332,-0.41531122,0.7874233,0.024854688,-0.22889379,-0.17822434,-1.6411141,0.9560078,2.6122239,-0.14150591,2.0035226,0.07744152,1.0716449,-0.2823609,0.0043811626,-0.5211868,-0.07304978,1.5911086,1.3641478,0.85357785,-1.0342115,-2.5915513,-1.5397017,0.21815494,0.3206579,-1.4519143,-0.98163605,-0.910819,-0.5038176,0.51298594,-1.7984085,-0.5289311,0.96445847,1.163124
Chacras de Coria,-0.80561143,0.47656173,-3.1495569,-0.75452775,0.30098465,2.2049425,-2.0469267,-0.16103823,1.1895447,-0.056945987,0.45361355,2.575687,1.053552,1.0954331,1.197477,-0.09884099,1.6520976,1.3209208,-0.07984514,-1.9134014,-2.1677582,-0.53824395,-0.8691809,1.9314175,-2.7257104,-0.9062058,1.0206977,1.661886,1.1651279,0.7169764,3.5788214,4.2328424,1.0572718,-2.857818,-0.33162358,-0.5360241,0.7216875,1.0987679,-0.37882322,1.0845312,-0.56044155,-0.6719916,-0.7027197,3.141607,0.71127176,0.24364282,-0.28967234,-2.7146351,2.2646775,-2.130524,-0.7717223,2.5326707,0.81971395,1.427807,0.73296523,1.431938,1.2207305,0.2742601,0.34387907,-1.6622373,-1.9315737,-2.088607,-2.7103398,-1.2240682,-0.5882243,-0.17773412,0.42491207,4.35919,-0.08595575,1.2233226,0.461566,-0.8512814,-0.7765737,0.9469493,0.8420147,-0.45173657,0.25860703,1.752808,-0.6086034,0.102802426,-0.25763568,-0.22582191,0.9052085,-0.8594742,0.07646609,-1.1880047,1.3903682,-1.0024285,-2.5115323,-0.16320455,0.6868272,2.4187944,-1.5818162,0.73496306,0.59019804,1.7547458,-0.79500914,-1.4155663,1.4815919,-0.10165401
Chapadmalal,0.0028676845,-1.8442432,-2.2368133,-2.6346128,0.3163381,0.30717963,1.9044983,0.23673171,2.6244817,1.6400857,-1.1035076,2.6212304,0.111797646,1.2928121,-1.2529187,1.7123886,-2.1129854,-1.5518345,-1.6862231,-0.32866386,-3.4210064,-1.3644196,0.23867862,1.1333587,-1.8059169,1.7652277,3.1738372,2.0694182,0.86429936,-0.1802424,2.438427,2.9357486,-0.82866746,-0.69437647,-0.84033144,-0.45913836,1.009203,0.6519778,-0.11821933,2.7799788,0.7461837,-1.8869843,-0.50629914,1.0214531,-0.74007076,0.6134291,-4.2276816,-1.2939876,-0.085002,-2.9377325,2.0077634,-1.6131816,0.26514196,0.7836494,-0.7747507,0.70983696,0.18425441,-1.2199606,-0.16981241,1.9132149,-0.7552413,-1.7828957,-1.0066698,-1.0733747,-2.9924111,-2.3360307,-0.8052736,3.2221525,0.28890377,1.0948683,-1.3852205,-1.1451796,1.0777087,0.14097643,1.6305022,4.0268254,-0.06936127,-0.5847041,-0.37602147,2.4687994,-1.5599315,-0.13694973,1.2952361,-0.22178525,-3.0653906,-0.75573087,2.2236772,-1.8204433,1.2656744,2.2360227,2.2908998,1.8685871,0.23647751,-0.50927633,1.6949677,1.0470575,-1.5483704,0.6754746,1.7880405,1.3976376
Chascomús,-1.2524142,-1.1127925,-1.8341078,-1.7572503,2.6303165,-0.18413197,-0.8862191,1.0230635,0.39805138,2.2111683,-3.3945322,0.77926457,0.26156658,0.08702291,-0.017176207,0.6357944,-0.31306386,0.9896081,2.1877596,-0.6586928,-3.1983094,-1.102792,-1.8370384,1.021098,1.2063313,0.4946683,-0.3936733,0.52386916,1.779242,-1.1537486,-0.41984668,0.88672554,1.5726665,0.6932584,-0.29857564,-0.07793331,0.09694688,1.8416237,-0.68859786,0.5657124,0.40891284,-0.07340015,-1.2951595,3.787687,-0.38037604,-0.37305683,-0.53810304,-2.1965363,0.5170558,-2.0332248,-1.201414,1.5577856,0.24866872,0.39241862,-1.323531,-1.0454192,-1.3524927,-0.45320177,0.17821008,0.63539076,-1.6680248,-0.1768317,-0.02282317,0.3889466,0.6303867,1.1958857,0.39977723,4.950933,0.8576245,3.3650272,0.66866964,2.0757275,-0.007365968,-2.8316436,0.74072444,-0.4767575,-2.4048095,1.9070674,-0.54755515,-0.9370558,-1.9554988,0.6517743,1.1267425,-0.7445257,1.2767017,-3.1741025,-0.030591365,0.47405073,-0.23269989,0.21225701,0.3650885,0.96151656,-0.82911295,1.1528618,1.2816395,0.41673157,0.98957396,0.7671414,0.05196475,2.4197083
Chile,-0.2987209,0.823047,0.8384258,-0.7813574,0.34518737,0.40313485,-1.2738984,-1.4722921,-0.16194616,-0.46318883,-2.3629045,0.50964224,0.64480555,-0.01714282,-0.043904994,0.6885478,1.1593685,0.4024463,1.1791223,-2.3470821,-0.6601628,1.2980908,-0.6024033,0.8455256,0.90104246,1.5605112,1.3304061,0.49470142,1.7472206,-0.44236,1.6452152,-0.56292355,0.75739574,0.368597,-1.584615,-0.5052292,0.013755839,2.3998773,0.929832,-0.16628553,-0.8533928,0.23308605,2.4282553,0.7463619,0.19025494,-1.8100243,0.23133591,-0.836893,-0.170795,1.1607064,-0.4557098,-1.0192778,-0.24014606,0.085639514,-0.9788204,-2.3555884,-0.75775164,0.16398299,0.041214123,1.4366134,0.7816872,-1.1185206,0.342293,-1.1015009,1.5011828,1.2963105,0.6136429,1.7656227,-0.24135402,0.55589604,0.0033543436,-0.4521301,1.6116403,0.74686295,0.57464343,-0.9397313,-0.8705896,-0.6074521,0.11583276,0.92156583,-0.39017442,1.8592384,-0.11109771,-0.7248566,1.6861541,-0.16418661,-0.14052637,-1.5462278,-1.7881048,0.48397624,1.3591878,0.5282867,-2.2476501,1.5284826,-0.15245117,-0.44866627,1.4278337,1.2063193,-0.44398218,0.01731932
Chilecito,-0.8355691,-0.102809615,2.2510955,-3.3872387,-0.38440284,1.0920761,-0.6252894,1.7143931,-1.6496091,-1.5266601,0.62148494,-0.78011715,1.0228895,0.32127935,-1.0798414,1.5168996,1.1115674,-0.8638563,-0.32241112,0.11257935,0.053725798,-2.1026106,-0.9083666,-0.6777887,-0.6242298,1.7497075,2.0510426,0.2685867,0.43756622,-0.47270384,0.9068392,0.7104014,-0.19063118,1.143719,-0.17773913,3.2042034,0.9491474,3.1244767,1.1357638,2.3423293,-1.0339724,-0.7459148,-1.0620056,1.0031502,-2.6673217,-0.7006612,-0.8238835,1.1398585,0.22796793,0.5234451,0.035590425,0.41542825,0.14720598,-1.5669135,1.7337327,-0.14771435,0.49865592,-1.0567867,0.88493866,0.8437688,-0.708742,0.5620105,-0.19577226,-0.8405711,1.3970556,-1.8036397,-1.3439558,-0.90673417,0.2636489,1.6395533,0.803333,-1.245144,1.4502734,-1.1264609,0.6517179,2.7291546,-0.5747077,0.8206525,-1.099421,2.2365763,-0.27872127,2.0266292,2.2553663,-1.1125413,0.062936634,0.24072522,-0.3076306,-0.7201378,0.14959605,0.4013618,-1.0941019,0.16840781,-0.98378986,2.002333,-0.76408046,0.11971728,0.046087872,0.059660535,2.381247,0.21575363
Cholila,-0.22970967,0.20403902,-2.189501,-1.088344,0.18431857,0.4992866,0.68014777,1.3925366,0.26748788,-0.44765905,-0.43777463,2.0782604,-0.3959774,0.17147379,-0.91962934,0.8622234,2.405757,-1.5848867,-0.6955746,0.6411541,0.63642603,-0.99461585,-0.28564298,0.01582774,-2.7507527,-0.412511,-1.4889679,-1.1416415,1.7195549,2.2152917,2.2599783,-0.0027391235,-2.4651413,2.4949868,0.14159223,-0.34230155,0.8829897,-0.26856533,0.3326705,-0.077793516,2.6960895,-0.629387,0.9085638,-0.7512268,0.027814995,0.23692684,0.244677,1.6958491,1.2550688,-2.1372604,-1.0921333,0.8821939,-0.106864385,-0.044806693,-1.9487244,0.35668015,-0.9032352,0.49910077,-0.36471975,0.81011623,-2.8937044,-4.290614,-1.6646434,-1.0677788,-0.34278366,-0.38050628,0.6378959,2.767805,-0.2058004,1.3857578,-0.9209437,-0.10921671,0.59186965,0.5258519,-0.84062797,0.5677546,-2.2122834,-0.276677,-0.5414615,1.1552103,0.50260514,1.3836471,0.1815648,-2.8928514,-1.390218,1.5347073,0.034455974,-1.9883032,3.1448267,-0.36977467,1.6573427,0.04161935,0.4406657,-1.5058999,0.8792834,-0.17969751,1.2946651,-0.06943647,1.3760092,1.5836494
Cinco Saltos,-1.3248235,-0.24922623,-1.2673693,1.1154262,2.187065,-0.41070357,-0.14427263,1.1492965,1.1643217,1.6886592,-0.86291397,1.4935545,-1.4498476,1.3371966,1.233922,0.5049979,0.6362165,-1.089782,-3.1709657,-0.7675963,-0.46885926,-2.8523998,-1.2143657,-0.32665795,-0.8259918,0.5479622,0.8809321,-1.0972699,1.6288216,0.92548233,-0.417089,-1.5785888,-1.4219588,2.2489157,0.4442114,-0.33382612,-0.49253336,0.16023368,0.9635812,1.4154791,2.492178,-2.2543275,1.8178453,1.0287071,2.5627685,0.59151,-0.96441716,0.01949454,1.2527572,-1.8694241,-1.2259248,0.9711986,-1.544689,1.4966812,-1.1472176,-2.3508565,0.45952836,-1.6412824,1.6708627,1.1555339,-1.0811833,-0.14382067,-1.5335385,-2.180373,-0.7501444,-0.28273755,-1.9864677,0.6336448,1.2667795,0.5079188,-3.4634311,-1.5302982,0.14443447,-1.888504,-0.8907924,-0.11207407,-0.1869639,-1.6765513,-0.83537036,2.6957848,2.7618117,1.5635833,0.28857645,1.8178391,-1.0366781,-0.5984744,1.0604023,-0.67262995,2.1672173,-1.006976,-1.0174814,2.10221,-0.6576899,0.47875673,1.1820629,-1.339713,-0.13872856,-2.6358774,2.5882833,0.96284634
Cipolletti,-3.243575,-1.117079,-1.950823,-1.945869,0.8675579,1.9213998,2.367609,2.4913418,-1.6638966,0.1023548,-0.051579136,0.5180188,0.3576497,-3.3165424,-2.0976195,2.6645126,-0.025794744,1.2992405,-0.85161173,-2.2042,-2.8027349,0.25982335,-1.3830025,0.39888734,0.012583189,-1.8054633,1.4275075,1.9840126,-0.10892556,-1.4986482,2.9139724,2.7834666,1.2033868,-0.6455186,-0.94325846,0.21963106,-2.5211172,2.3896432,1.057999,1.1681339,2.4964576,0.72575146,-0.8136847,2.418105,-0.1380136,-0.14627601,-3.7840543,0.102230534,0.4696695,-0.07855118,-0.073525436,-0.7349319,1.6067913,-0.49160227,0.21920975,0.3555183,-0.15465,-0.09414077,2.327579,1.9576656,0.71129334,-1.8780594,-1.0868877,-0.6436402,0.10711663,0.8135226,-1.7732524,2.391061,0.46907052,2.0030482,0.16115575,-2.8961465,-0.36811495,-0.3191887,0.4088494,1.2631726,-1.298896,1.3475634,1.3314844,2.3998182,-1.4737104,0.50722206,0.26703256,0.9763427,0.39293364,-2.2371886,0.37184745,-0.3427036,-1.6917267,1.9331468,1.4081504,0.7129229,-1.203456,1.1549774,2.0417228,2.7994785,-0.60317403,-0.49982616,1.8880312,0.58302325
Ciudad de Mendoza,-0.95083314,-0.9833084,-1.6722136,-1.5065781,-0.10128637,3.0566971,-0.27347302,-0.75888366,-0.3236756,1.5512699,-0.90131414,0.46674246,0.5454601,-0.9730752,0.09392991,2.3399892,1.3280528,1.3552186,-1.4505142,-0.6405147,-3.0691044,-1.0606585,-0.6057792,-1.4027175,-0.24084516,-0.33246052,1.993813,-0.68293995,2.952683,-1.6599569,1.6892011,2.2904224,1.3823742,-0.1437565,-0.90573233,0.43674037,-1.439375,1.3574077,-0.37972355,1.3571028,2.17301,-1.536567,1.5291594,0.31297472,-3.2864687,-0.047584075,-2.299768,0.13025808,2.2312267,-1.2369261,-1.1714989,0.37779734,1.0948169,0.7227699,-0.025571696,-1.0673841,1.5874156,-1.0872049,1.0591314,2.0267687,0.42783296,-1.6661009,-1.1506553,-0.73941785,-1.0264223,0.019192293,-0.8230314,2.0259144,1.3610686,2.048653,-1.1360812,1.4101027,-0.1409737,-1.3017837,-1.0634158,1.2106038,-1.8830932,-0.18238515,-0.4881392,1.667295,-1.361716,3.0863075,2.0177548,-0.30270696,-0.9042657,-1.3714577,0.67288774,-1.9361265,-0.3968362,2.187649,1.3484263,2.2790568,0.10461173,-0.4625457,2.4104192,1.7437524,-1.2502893,1.5061562,1.9646904,2.6716418
Ciudadela,-0.2231962,-0.49233693,0.07616458,-1.7044574,-1.60354,1.3292766,-0.5990519,-1.1240646,0.26460212,-0.7449636,-2.381282,1.5426246,-0.6185432,0.8026299,0.097325504,0.038706906,-2.574437,-0.6509683,1.2724867,-0.76199186,-0.24412902,1.3610522,0.46631086,0.30262247,0.016240884,0.56043863,-0.16008759,-1.4034199,0.14943163,2.2462738,-1.7253572,0.074437685,-1.5249982,1.1794128,0.98734534,-0.10190487,2.3552341,-0.7326811,0.1870561,0.4617516,-0.71754545,-1.3455561,3.6441073,2.0943549,0.7220353,3.2978623,0.087692596,-0.029551765,0.02135722,-1.4142228,-0.8723133,0.9864388,-1.3063772,-1.4892598,0.5078472,-1.1090348,-1.7229453,-0.8525242,0.81683636,0.8792761,-0.28789133,-3.5269952,0.02883234,-1.4973333,-1.7527239,-0.7564491,0.73709804,1.3536055,-0.13570687,1.2444711,-1.2379616,0.4594524,0.36608124,-1.1736741,1.4692109,1.0783137,1.3031906,-1.9000958,1.176699,1.3699199,-1.664644,-0.21465687,0.7332975,0.8450994,1.1583031,3.6073763,-0.81696093,0.71563816,2.3044653,-0.60419005,0.64670116,0.4779483,-3.6295452,0.78331536,0.13543405,0.6329965,0.6738865,1.1084162,1.9647875,-0.86138743
Coghlan,0.43116057,0.35845098,-1.4312967,-0.44929564,0.39772457,-1.9378287,-0.8719915,0.8305292,-0.79621226,-1.6663983,2.1929734,0.29882365,1.03966,1.2433485,-1.608754,0.30654678,0.94369096,-2.3775342,-0.005194469,0.9926112,-0.7121408,-1.8373177,0.30166903,-0.009195874,0.80515254,1.5311415,0.22423023,-0.59156615,1.2125516,0.9693026,1.3183599,1.6734066,-1.1868433,-0.19318625,-0.85732853,0.95970374,-1.7137638,-0.19030614,-0.026571853,0.3933499,-0.9218709,-0.94037545,-1.0126189,0.23828982,0.94744325,-0.79684913,0.34299955,-0.8295513,-0.25277764,-0.89216703,0.10927049,-0.712419,2.5049627,0.7120152,-1.6221694,0.9035893,0.7533809,1.1886024,-3.7095814,-2.2910128,1.6155967,-1.0169407,-0.99426275,-0.9637051,-1.5604928,1.6687737,2.036688,1.3002942,0.085470125,-2.3628223,-0.6557615,-0.22166021,0.2921156,-0.63324296,0.33218226,-0.51966923,0.5322451,1.1037425,0.7967778,0.16169327,1.9888222,-1.3696623,0.22462733,1.3277682,-0.49060264,-0.36943,-1.7536683,-1.6942954,-0.7908563,0.574884,0.4177008,-1.1158673,1.0133322,-1.2366439,0.009706597,0.8749775,-1.2820059,-0.20385301,0.27617216,-1.2545067
Colegiales,0.49893945,0.73800707,-1.5952852,-0.25277504,1.7315935,-1.3712401,1.1399219,-1.5527138,-1.0076547,0.21280378,1.2512324,-1.3351067,0.45448688,1.2666564,-0.8568249,0.6371775,2.198833,-1.3381749,-1.2592992,1.0594963,0.27610615,-0.2870082,1.2708776,-0.49585876,-0.8810004,1.4825088,-0.7109428,1.3998365,-0.5729214,0.5460334,1.3988824,1.7106204,-0.2614321,-0.90469474,0.16184469,1.6331365,0.45801896,-0.65953565,0.35368058,-0.37539795,-0.40955457,-0.19547263,-0.64351183,-0.5104423,-0.16953681,-0.11378904,-0.26437795,0.8456674,-0.13901056,-0.8557608,0.012573116,-0.4635528,1.4517903,-0.1269724,-1.1801344,0.5085087,1.8653882,0.8408944,-1.6234325,-2.165491,2.4142659,-0.933167,-1.5794935,0.5951759,-0.91922003,1.5391276,2.1716018,-0.62138,-0.8175755,-1.0308249,1.0830507,1.137824,-0.23608929,1.2940279,-0.09523406,0.8299463,0.19890238,-0.12102498,0.7262784,-1.1689637,0.88287777,-1.9628681,0.10381966,0.6736767,-0.32638162,0.95023644,-0.83248055,-1.8944812,-1.2194898,-0.58511865,0.72023207,-1.3303499,1.5504018,-2.1279023,0.12067429,-0.501628,-1.4690162,-0.5404854,-0.16804035,0.09565873
Colonia Caroya,1.6723475,2.2323997,1.928162,0.5336191,-1.0678293,1.0928433,1.8488103,-2.3307543,-3.1063108,-2.9043193,2.1653771,-0.22832935,0.6384437,-0.50117964,-2.1084864,0.37935933,-0.29600158,0.19311167,0.73784757,2.3010442,1.9790713,1.4684266,0.5881964,1.9900613,-0.7559144,1.6065934,-2.5619142,-1.4913216,-0.96924764,-0.15468141,0.5000883,0.12530255,0.4792279,2.4161277,0.32347333,-1.0357158,-0.32225576,-0.3972204,3.855719,-1.4673481,0.5924652,0.8080781,0.46001425,0.5521335,3.2737207,-0.54993653,3.0728078,-1.4115173,1.0859637,0.3542581,-0.8226685,-1.4975169,-0.64768636,0.019428702,0.38284546,-3.0099475,0.20568468,1.3656131,-0.16230358,-2.7787125,-0.19061534,0.8394014,0.11114484,0.93165237,1.3347007,2.5483344,1.0433036,-1.2241999,-1.5528829,-0.53031915,3.6158147,0.20710483,0.96096885,1.1777984,0.28400233,-0.8561109,-0.5688048,0.6860256,-3.188091,1.0321212,0.3529939,-0.3047255,0.44310108,-3.9746308,3.173127,-0.3425767,-2.7113438,0.9677869,0.36165223,0.12714538,1.5214952,-0.65722746,-1.193041,2.1846333,-1.4826475,0.27921423,0.99575657,-0.31477702,0.15428458,-0.65680826
Colonia Tirolesa,0.8754924,-0.24562792,0.9595532,-2.5818062,-0.4842932,-0.8270429,-2.5324626,-1.3992859,-0.8730286,-0.41321623,1.678738,3.4709258,1.3978891,-1.2121794,0.97574306,2.0474846,1.3158244,1.9747653,0.12572043,-1.123556,-1.6782469,1.4284624,1.0509477,0.00859039,-0.21173953,1.7474577,-0.3766053,0.6824921,1.8447022,-3.244319,1.0158092,2.208915,0.072255515,2.7436016,0.036218654,2.2722397,-1.4765453,1.0551648,-0.83049643,-1.0469208,0.291005,0.87014765,2.3825483,1.63582,3.2335432,1.2074249,1.7452935,-2.0914838,1.5053327,1.3994713,0.23402956,-0.84962124,-0.49027678,-0.33187672,-0.45152172,-1.3428208,0.116425574,0.3131056,-1.3770546,0.21846072,-0.8129554,3.573267,-1.0013467,1.8480055,1.6251011,2.7875104,2.9312818,2.7821832,-1.9096878,0.7186883,1.5213394,0.8308905,1.1401434,0.35194322,3.7686794,-2.505915,-3.2792382,0.39347556,-0.48442626,3.1092672,1.6256071,-1.3797588,-1.9435741,-0.34917718,4.3977947,-0.9417423,-1.1501956,-0.8565485,0.12056834,2.6439319,1.5841937,1.0035793,0.45459333,0.2771393,-1.1398617,0.6928409,1.7079268,2.1611443,-0.27021763,0.17239082
Confluencia,-1.2365667,-1.2596304,-1.2503383,-2.318347,1.8676188,2.3557057,1.5171967,1.8061708,0.22622967,1.3260233,0.023426304,1.100751,-1.6310503,0.9047503,-1.852625,1.5506884,1.7008772,-0.06637115,-0.46777815,-1.2323911,0.03078564,-1.5791677,-0.12828116,0.23157018,-0.50035226,-0.64282876,1.1618494,1.1095372,1.8244747,0.858938,2.4391575,1.9418168,-0.30560043,-2.037143,-1.9336685,-0.18862574,-2.8705215,0.81628036,-0.7165932,3.9985769,2.3310933,-2.9058433,-1.8982522,1.37836,-2.5424592,-1.0590556,-2.045574,-0.41784135,1.2429264,-1.136784,-2.331125,0.7970374,2.0974183,1.2428998,-0.3947501,-0.72764814,-0.6499618,-0.006255414,0.8481114,2.8807707,1.0630815,-0.4019541,-1.864192,-0.063498564,0.36628637,-1.6632024,-0.56614417,2.208645,2.422255,2.1326191,0.34336552,-0.9388163,-1.565912,0.07434997,0.93960893,1.815144,0.6097245,1.6125628,1.0240892,-0.40214536,-1.5106082,2.6337132,1.1362265,0.54292315,-0.6574951,-2.6130843,0.65149134,0.49702853,-1.7581189,1.1735873,2.399565,1.4539839,0.26984888,-0.45347166,2.792926,2.859521,-1.4088465,0.8417752,0.002129124,3.1669059
Congreso,0.39728233,-0.2807765,0.37388033,0.19849956,0.5941837,0.7039905,-0.4128883,1.5305228,-1.1607887,-1.8662193,-0.058506917,-0.8960549,-0.8504802,0.77226603,3.2906196,1.7251581,0.9582305,1.6513467,-1.8727847,0.94614786,0.99346393,-0.4419475,0.5454297,2.563938,0.28010175,1.2155688,0.51934105,2.0831912,0.2883332,-1.2787267,1.3138758,0.31356633,1.5448006,-0.050863206,-2.3370337,1.2825264,-1.2868884,1.621545,-1.8801821,0.3417742,-0.82045436,-1.1798074,0.7501021,0.9443253,-1.3093123,0.49375588,-0.8032943,1.6197292,-1.4119805,1.116326,-1.4501746,0.2442876,0.4730357,-0.87243485,-1.4362861,1.7362374,-1.5361007,-3.6523993,0.9065468,-0.10876347,0.12272425,-1.3208401,-1.7508014,1.2146763,-0.75640553,-1.3025384,0.063605055,-0.1464252,-0.572759,1.2341322,-1.5221999,-0.02102193,0.6972038,1.1717962,1.3036925,1.2861062,0.7066286,-1.0928459,1.3696792,-0.233476,-1.5697968,-0.5515593,0.13906074,3.5515583,-2.0558958,1.338846,-0.027929021,0.7869041,0.7038321,0.6215479,-1.4523048,0.9015804,-1.4955709,-1.9966977,-1.4510496,0.19669287,2.2729478,-0.9130837,2.0808387,-0.73545146
Constitución,0.14677191,0.39340493,-1.4828173,0.37712467,-0.30061856,-0.4131726,-0.35080466,1.8869704,-0.5785666,-1.2559105,-1.2598001,-1.3027118,-1.5763084,1.3999933,2.2599897,1.1148095,1.0542926,1.957508,-2.1873348,1.562882,2.083588,-1.3664343,-1.2294158,1.0905273,0.697706,1.2491655,-0.6328644,0.44119236,0.5082513,0.71791637,0.19226506,-0.56380177,0.7687612,1.2454152,-2.2619574,1.2815173,1.3816923,-0.43531564,-0.94267505,0.13571429,0.3781063,-0.13429934,0.48047855,-0.87405974,2.0169961,-1.2775574,0.49599114,-0.2283348,-0.9590743,-0.7055695,-2.1026773,0.11172627,0.0046899463,-0.5578683,-1.0053937,-0.098469324,-1.4584609,-0.6427106,0.56188,0.81320965,-1.0669988,-1.6659582,-1.5389062,3.5009694,0.15389054,0.028241986,-1.3445798,-1.1523471,-0.15219468,0.2960032,-2.1067743,1.2668641,-2.330523,0.92312026,1.4783607,0.6708016,2.1249068,-3.4436002,2.6767547,-0.4403986,-1.0119145,-0.22116095,0.52078825,4.4018145,-1.1976826,2.7228284,0.026930809,-0.09245292,1.1380367,-1.8283025,-1.0050424,0.6280423,-2.4793668,0.27889314,-0.36059248,-0.5479442,-1.3918258,0.063902564,3.7522278,-0.31798807
Corcovado,-1.0678126,-0.60426366,0.38249236,-1.1490815,0.5347257,1.166564,-0.09678562,-1.3354976,-0.90745157,3.3108647,0.8554685,0.97127545,-0.2702058,0.28343168,-0.5035189,1.6387458,0.37729686,0.5839587,0.5593555,-0.5415149,-0.56764644,0.5872579,0.33549806,1.3316244,-0.28863287,1.6129556,0.66255033,0.24157903,0.700105,-0.383903,3.2875772,2.151713,1.2932438,-0.83525354,1.4242624,-0.9832915,-1.6073323,1.8697637,-0.9903294,1.4009413,1.5391754,-0.8293283,-0.66243184,0.21983266,0.19998346,0.3445133,-0.4527863,-1.4462296,0.37460503,0.14250693,0.25051862,-2.0907576,-0.07816766,1.1114209,-1.3398595,-0.67328376,0.007659215,1.6154246,1.2713864,0.49178156,1.7399688,-0.63093036,-0.31067652,0.73547345,0.3860061,-1.2596058,1.6482738,3.0145974,-0.48277462,1.9347591,0.610019,0.73493755,-0.6927514,0.32416317,0.5573382,0.72986716,-0.7363223,-0.3846479,0.9916372,-0.87741977,-0.71054614,0.052131876,1.2414063,1.5265557,0.118087694,0.1322987,-1.4508678,1.5329782,-0.7508171,-1.0567927,0.9553112,1.0942092,2.139746,-0.10100325,1.031635,0.88526803,-0.038592946,-0.4699248,-0.19478238,0.9251695
Coronel Suárez,-0.79113877,-0.118325345,-1.3434621,-2.9781272,-0.78004897,0.86899996,-0.40556014,0.9901757,0.39625236,1.7829304,-2.1770737,1.1134502,0.9017229,-0.25138098,0.12585959,-1.0437688,2.1855357,-0.43497464,-1.7207665,-0.811558,-1.8731308,-0.56856227,-0.83642495,1.5357147,-0.8099982,-3.0308583,0.19657086,-0.347675,3.0903304,0.7544238,-1.0018094,-0.77815336,-0.16324018,2.404199,-1.0432734,1.8687385,-0.31681564,-0.35137096,-0.7024804,0.42815414,0.35208872,0.9051054,1.2806396,0.14586477,-0.24652396,1.3716555,-0.9485795,0.6668184,0.48622608,-1.3228954,1.9907347,0.9215261,-0.031855498,-0.24171889,-3.0298882,-1.5063704,1.5104972,0.69375646,2.4472234,-1.341415,-1.1507838,-0.4932939,1.3706173,1.3736655,-0.059481394,-1.1207627,-0.21533236,1.0329019,1.827522,1.0690409,-1.7123185,0.15627424,1.2505099,-1.0867454,2.109172,-0.5620335,-0.33101568,-1.1448255,-1.0710436,1.0682472,1.7985274,0.9523024,2.359118,-0.12991814,1.3119544,1.6999168,1.0387728,-2.0340166,3.1695821,1.3242621,2.2954874,1.6231828,-0.33945033,-0.642749,2.1346421,0.4061828,0.067054264,1.3978381,0.71569765,1.8535326
Cosquín,0.8407184,-0.123874806,-0.070157886,0.010259466,0.8784856,-1.7709091,-0.30525696,1.147735,-0.31032544,-2.036063,-0.29152724,0.7355271,-0.43140417,-1.3012053,-1.2424868,-0.95275426,-0.6611882,0.2571674,-0.7919439,-0.8369092,-2.7380478,-0.2516936,1.490299,-0.40692687,-0.14017576,-0.46435606,-0.5427439,1.5209517,1.4590309,-0.6985769,2.8760607,1.5163537,-0.5640753,-0.6364183,-2.2939022,0.14020266,-0.11559403,1.5451756,1.1024929,-0.30373496,0.93909854,1.1045574,2.203757,-0.40066895,0.20825261,-1.418772,0.0619064,-1.4135058,0.12149502,-1.8009129,0.014763528,2.032058,2.4796567,2.048747,-0.4264888,-2.2058022,-0.5460822,0.09005852,1.4811689,0.3771687,-3.014058,0.37804022,-0.86781234,0.09149288,-1.2081531,-0.36362994,0.74414104,3.0120058,-0.52851355,1.1013968,0.88109404,0.46754912,0.57871985,0.9809624,0.5833649,-2.9835668,-1.163727,1.6484739,0.08722891,3.5029876,0.9722478,1.6159571,0.5068454,-0.4361279,1.88335,-3.2652376,0.84327537,-1.7338309,-1.0274185,1.9905554,1.3256674,1.6695526,-2.2449558,2.627564,0.45315272,0.43579918,0.6498634,1.9264516,-0.24611683,2.1781428
Costa Azul,-2.0433426,0.42292565,0.27915838,-0.9311142,-1.2617323,3.3964622,-0.718287,-0.8897457,1.7188252,1.4684387,-1.0080987,2.6632109,1.0115352,1.1707094,-2.1339684,0.7998685,-2.1714084,0.07070213,0.7191873,0.43846893,2.3313203,-0.22132564,0.77304333,0.8849674,0.5685868,1.3556112,0.053655066,-2.7888653,1.2189645,0.9290747,0.18107656,-2.7620783,-0.25630346,-0.82392496,3.2581604,0.26614293,3.1474776,-1.7389654,-0.70385075,0.12882307,0.3049399,0.47881404,0.35359365,-0.024300346,0.5769691,-1.7728386,0.9618889,-0.45020056,1.485877,-0.3384194,1.3871068,0.19845794,-0.16375603,1.5712682,1.6460637,-2.9307134,0.8793703,-0.8013333,-0.644639,-0.22245744,-2.1945138,-1.3476206,-0.07186297,-0.91745543,-0.6595581,0.9386501,1.0285952,-0.6903526,1.654323,1.7640084,1.6176597,-0.14111383,1.6247777,-2.5777228,0.31609675,-0.86237663,-0.53673923,0.8703492,-3.9220593,-0.513744,0.90738195,1.1033704,0.018388541,0.12422465,0.81255615,-0.2058269,-2.0301876,-0.9075656,-0.58082473,-1.3539028,1.7264043,1.465848,-3.77401,-1.7218186,-2.5062096,-1.6408626,1.1111342,-1.7619773,1.3949237,-0.18440431
Costa Chica,-0.11736351,0.8316199,-0.29968056,-1.0997872,0.48719072,1.8783057,-0.51788,-0.8319279,0.40790695,1.9066914,1.1794589,0.13460648,-1.7289875,0.993202,0.54867464,-0.3321748,0.23471472,-0.11979573,0.88190466,-0.65855926,0.33254352,1.3300112,0.5331349,-0.38303638,-0.5216713,-0.09506691,-0.98330146,0.6363189,-0.15746737,0.18636449,1.2238945,0.83488286,-0.40616208,-1.8093575,-1.7617747,-1.356335,0.5582392,-1.1668,0.54217136,-2.1574442,-0.3220595,0.26012665,-0.20050487,0.85081655,-1.051538,-0.08654487,0.6254393,0.35506123,0.49207264,0.8104957,-1.4233812,-0.32668355,-0.011814921,-0.84560317,-0.18242867,1.8789883,1.1371313,-0.16345961,0.35330448,0.55334985,-1.3371223,-2.751465,-0.25038123,-0.1706188,-0.60796845,0.00827668,-0.14315549,-0.060708478,-1.6044703,1.6813661,3.1327374,1.1047664,-0.032037087,1.2446855,1.7193869,0.4830055,0.5238146,-1.16042,-1.4611976,-0.8297737,-0.20072213,0.007991413,-1.4039898,1.0216444,0.34489423,-1.503976,-0.40094036,1.470648,0.04989939,0.33542478,2.6506705,0.913943,-1.3960351,-0.68940175,1.6508763,-0.53419214,-0.24346158,0.03106263,-1.7613931,3.3025417
Costa Esmeralda,0.6779725,1.1842033,-1.4473463,-0.15329017,-0.5984692,0.45637715,-1.1644276,-1.5912724,-0.9960497,-0.4573832,-2.4273958,1.2323139,-1.4336247,0.5663167,2.4898307,-2.4024203,-0.023886694,-1.2443123,-1.4288906,1.4894744,-1.5645144,-0.24157998,-1.1540002,-1.2417581,0.23624483,0.98680204,-1.2876568,-3.6383266,2.924965,3.7773423,-1.202756,-4.182453,-1.8326325,3.6919785,1.2264888,0.1710403,2.724973,-2.2578533,1.973898,-0.82969826,-0.6387252,5.065799,3.7361376,2.5987833,0.83862257,0.48698628,2.8851588,0.77973354,2.632141,-0.35333487,-0.25915954,1.493757,-1.5085961,3.5762656,1.1589931,-3.975518,2.1428616,-0.98367023,-1.2955307,0.021461856,-0.27021703,-0.39043483,-1.407985,-1.9819212,0.26771536,1.1084572,1.0670754,0.33980855,0.14036378,0.69547844,-0.14446202,0.18069214,0.37203234,-2.3833175,2.6353712,1.3746293,-1.7227205,-0.117131256,1.2324462,1.8962463,3.4373903,0.6700611,2.7989383,0.031037914,2.7135153,3.6939318,1.4112713,1.6766647,1.4916643,-0.64615387,3.5953188,0.14250745,1.5694457,1.0466193,-1.015065,-3.3093495,2.2288353,1.6049571,1.6279438,-2.7494743
Costa del Este,1.0165904,-0.7330427,-0.96072054,-2.9676137,0.839002,2.3229833,-1.0905784,-1.3907709,-2.375144,1.9752728,-0.0803997,-1.5560089,1.7957475,-1.2290894,-2.103587,1.9350163,-1.7697332,1.0266794,-1.766774,-2.9999003,-0.9704153,0.09719646,0.61417204,0.68389845,0.7024433,-0.08679076,2.880254,2.8450003,1.2106605,0.860214,-0.17506056,0.39085546,0.5915389,0.7962902,-2.434119,0.3934913,0.77792734,3.9774806,-0.32500115,-1.1765182,-0.78182673,0.85164905,0.1690518,-1.1890974,-0.027500406,-1.5785638,0.046225365,-0.20361769,-1.4973216,-0.0420161,0.91875935,-0.7612066,3.4523408,-0.6526754,1.3872187,-0.5966032,-1.747977,-0.7460689,-0.8654138,-0.46319413,1.2543087,-0.5125668,-0.16496554,3.2598226,-0.829801,0.9728052,1.2565253,1.5714217,-1.54405,2.6904511,2.1126113,-0.69130695,-2.7108202,1.4856218,-0.36170024,-1.2499052,-2.5976753,-1.4118947,0.22284298,-0.5138766,0.56717765,1.0213196,1.7822307,-0.49591556,-1.319556,-1.5034544,-0.83081436,-1.155909,-1.7384669,0.28500417,-0.8321685,1.3371488,-1.285554,0.10168671,-0.15863381,0.4091986,0.087623544,3.164144,-1.6900373,3.1617327
Cruz de Piedra,-0.31718814,-1.5363467,-0.9671352,-3.02988,1.2683287,0.9910613,0.15793516,-0.6125546,-0.80411565,-1.9451904,-1.1238905,-0.9458594,-2.4830909,-0.00064131926,-0.6443763,-1.068501,-0.6385629,-0.63430697,-0.93379414,-0.719554,0.11084086,-1.0781299,-0.7850473,-0.75106,1.2352573,-1.3287942,0.34507763,-0.7146082,0.043778054,2.122181,0.09938621,-1.4650283,-1.7988951,-0.27397513,0.19768256,0.031015465,-0.11759493,-1.1977144,1.7413752,1.4573689,-0.60187554,0.14708406,0.29078776,-0.7675196,1.9386061,-0.6231391,-0.19585426,-0.36063826,0.77158624,-1.4688351,-1.1321692,-1.2220266,-1.1216154,-0.7050381,0.7788244,-1.1070837,0.10034357,0.2406717,1.6794598,0.6479576,0.56771195,-0.44069147,-1.894679,0.5515387,-3.341369,1.6197441,0.3634931,1.872721,2.3666613,-1.5802193,-0.90590054,0.085161716,0.384787,-1.844145,-0.7399071,-1.2993335,-0.8595619,-2.0028715,-1.3189018,2.0269432,2.4080024,-0.013185642,1.7905877,0.27352232,-0.17695312,0.34102982,0.9962933,-0.19625981,-1.2645392,1.0099111,0.92970484,1.0046378,0.64193624,-1.5611782,-0.11134886,-0.826368,0.80692345,-0.20140824,0.89386845,0.39138445
Cruz del Eje,0.8579022,-0.2661502,1.1937891,-1.1356512,-0.10565938,1.4295288,-0.88723963,-1.169599,0.1192553,-1.079174,-0.23315035,1.1360252,2.5634475,0.39180157,-0.24910496,1.0449251,-2.090162,0.6418035,-0.13435945,1.093255,-0.5438849,-0.41968057,1.3476782,0.280661,-1.885422,1.1187388,1.9752082,-0.046611715,0.18178499,-2.1051316,0.16298957,1.4210483,0.3978563,0.7314148,-0.0033959842,0.2743987,-2.4911237,0.95096266,0.14720032,1.1508926,-1.4676535,1.8696449,1.1343222,1.2921276,0.04382667,1.2567784,1.385751,-0.5810014,1.9439397,1.6088964,0.16188358,1.5461285,1.1651067,1.3711424,-0.073683776,-1.1353216,1.3993744,0.07107303,-0.32234246,1.5769922,-2.4628038,-0.7784349,-2.9899755,-0.66364044,-0.7863475,0.4934041,0.4132676,1.0036993,-0.4423207,-1.746256,-0.54896307,0.8138131,0.9911793,1.0624214,1.1699725,-0.93183607,-1.5606836,-1.903429,-0.80049497,0.9666083,-1.495728,-1.9518862,0.21332045,0.5350361,-0.36481014,-0.06524622,1.9511377,-1.2663437,0.74783915,-0.56098354,2.5393884,2.2367227,0.15647894,-0.8931558,1.8529624,0.636254,-1.3844973,1.4908999,0.41197175,1.1879083
Cuesta Blanca,0.8436157,0.05168476,-0.07767967,-2.0315118,0.73141575,0.24655586,2.1093044,-1.0835456,-0.7274055,-1.5286055,-0.9403883,0.63548124,0.2860826,-2.415186,-0.9506287,1.7274,0.69767463,0.7357244,1.6335647,2.0238926,-1.3011541,0.7479648,2.1091564,0.53860724,-0.052052274,-0.4491627,1.599809,0.9055334,-0.9613817,-0.24425577,0.41509125,0.27268368,-0.121009484,-1.9532366,0.73255056,0.052578483,-0.23777354,1.3575655,-0.21149063,1.0911114,-0.34207484,0.71205825,1.8053219,1.6496121,2.4537833,1.4813739,-0.68707246,-0.82747,0.011684659,0.8001748,-2.2283475,0.5019638,0.75543714,1.9106654,0.45338804,0.15519527,2.3982303,0.05070353,-0.51476485,0.7710361,-1.3247635,1.4510418,1.0968313,-0.5336144,1.0265529,1.0216751,0.8868832,-0.52981097,0.40775108,1.8564527,0.9747265,0.6035642,1.1863818,0.55358464,2.139622,-1.387824,1.8694811,1.6226791,0.037132613,1.5722867,0.81949294,0.39756793,0.31827098,-0.22458108,1.8960648,-0.55210716,-0.60368556,-0.17355233,-1.4213587,1.037986,0.4828354,1.4357407,0.14768873,1.3569242,0.5201075,0.6080571,2.4186904,1.307736,0.14201534,1.6675019
Cushamen,0.5998325,-0.3162033,-1.9247733,-0.37691042,1.2771306,1.4461211,-0.17222498,0.10929352,-0.7752979,-1.1381071,0.54338515,2.0771918,-0.1253263,0.8134949,-1.5354799,1.0576729,-0.71777546,-0.5655811,0.20586525,-0.37284443,-1.9064573,-1.2451369,-0.9497284,0.93534774,-2.100015,-0.72967863,2.0724454,-0.7787585,2.0161784,0.24125633,1.7298629,0.8350914,0.74433976,1.484873,0.38750175,0.76808923,1.5920608,-0.7480947,-0.8346411,-1.2091378,-1.7887982,0.84501725,1.262056,3.3173623,0.90298784,-1.1575111,0.4679164,0.010591552,1.0558583,-2.5479074,-0.6732193,1.9289848,0.29237568,0.29524875,2.2971504,-2.0980692,0.64394134,-0.610697,0.5848261,0.42146018,-1.5980906,0.39365274,-0.794949,-1.1424255,-1.2369761,0.3940544,-0.26959783,1.2693279,2.756442,0.601089,0.6652685,0.04729396,2.1910093,-0.03571575,1.5256362,1.0029045,-0.46240944,-0.5589989,0.11593603,2.2303016,1.5279528,-0.40256143,0.4370807,0.27530986,2.262023,-1.1299115,-0.34385693,-2.815425,-0.06004958,1.4127488,-0.5713353,0.4299178,1.2656794,0.75892544,2.4391382,0.5874263,3.4565408,1.483856,2.8885264,1.4282501
Córdoba,1.4842818,1.5117934,0.2064927,-2.8681386,-0.36416614,0.52720976,0.630455,-2.965051,-1.6318241,-0.695748,0.30432928,4.10086,3.483236,-1.007409,-3.0045145,1.7474992,-0.97651863,1.4080594,2.3130589,0.9502728,-1.8798734,1.852025,1.8889111,3.2739623,-1.9042735,4.392636,-0.6213875,-0.683541,4.382491,-0.27286047,3.9003553,1.4105169,0.1330365,2.6598258,-0.77241,2.3884432,1.5048683,0.45008,0.29915518,0.5004901,-0.85752493,2.0754912,2.754352,2.4166849,2.7001202,1.9602287,0.9440236,-1.9021263,-1.3834748,1.6665908,-0.10697406,1.6851506,-0.29969913,0.9404708,-2.2217753,-2.5634665,1.351201,1.787059,-0.28075573,-1.335811,-2.763573,1.3170643,-1.9458829,-0.17672862,0.03591512,4.8342886,3.3093526,3.9417214,-0.16621375,0.5404445,2.6350615,1.3575329,1.6771448,0.64358085,1.3885078,-3.090637,-2.971569,1.6914407,-1.4237458,-0.50385004,2.3800707,-0.6286915,1.0203015,-2.4568148,3.5254009,-1.9320142,-1.4977537,-0.7918155,-2.398045,0.37715235,2.491748,2.1688387,-1.6019841,2.5956259,-2.7860386,0.1446904,0.9803586,1.6377915,-0.6786576,0.7286684
Dalmacio Vélez Sarsfield,1.8020974,0.48431647,-1.0106938,-0.3535257,-0.008071415,-1.256364,0.2220449,-1.7302356,-1.5904578,-0.6707575,-0.30450413,2.3347876,1.3429687,0.55652565,-1.1116447,1.11158,-1.5657634,-1.8466274,-0.62009335,-0.20527036,-1.5540262,-0.39622754,2.2023773,1.7143264,-2.8091114,1.9176065,-1.3624302,-1.333743,1.1324692,1.0906284,0.4683501,1.7779012,-0.30579242,-0.017051624,-1.2186377,-0.20202763,1.4331284,-0.7618033,0.12527816,-1.7389421,0.05755374,0.35951552,1.0443177,-0.23570313,1.8541794,0.6153247,0.71891755,0.38454917,-1.2498142,1.3730108,-0.93096817,-0.36083445,-0.6626621,2.16846,-1.1150651,-2.5934675,1.9795929,-0.63773245,-0.27724305,-1.6254674,1.1096475,-0.73237306,-2.2447572,-0.3436157,0.7626937,2.9590447,1.444212,1.2670232,-0.25458318,1.1339799,2.3000433,1.8124194,0.16613716,-1.7131318,-0.39501613,-1.9790099,-0.6525406,-0.7110008,-0.57345426,-1.6389734,1.371121,-0.6003392,1.9615176,-0.13841362,2.6411703,2.0401762,-1.7364197,-0.5787541,-1.321467,2.478545,1.610557,1.5722209,1.2727821,0.25685152,-1.8868358,-0.46073607,0.3416093,-1.7438533,1.4441677,0.6431254
Despeñaderos,-0.8801587,0.22170943,-0.28923482,0.45934495,-1.2332782,-0.29069698,0.64155483,2.555717,-2.8240736,-0.63551646,-0.7518794,1.4747078,0.3176667,-1.622021,-0.79850113,-2.090951,0.6850137,-2.5827603,1.0165881,-1.1605663,-0.38773367,-0.13025078,-0.669594,-1.5530843,-0.19560878,0.6671759,-0.44465113,0.20350009,-0.13822708,1.0785338,0.33035493,0.37749866,-1.2204598,-0.41368994,0.7026299,-2.3575416,-0.17016199,0.13642462,2.6530442,-1.1427064,0.8754566,-1.6284866,1.1016469,-2.9719167,1.3124471,0.295596,2.4814172,0.9753114,1.5814525,-1.7887766,1.1041603,-0.39133668,-0.54997826,1.4082069,-0.011376983,0.01798925,0.8488205,0.66571414,-0.4802196,1.5178502,-2.3768122,1.687373,0.9882158,-0.29995784,0.9840954,1.836036,-0.7327957,-0.51093787,0.3896933,-0.4523166,2.6101136,-0.83077013,3.6408086,-0.14103024,-1.6078825,-1.943618,0.038921565,-0.7203972,0.41176632,1.1784,1.968202,-0.80068237,2.9581466,0.088256024,1.3602355,1.8655101,-0.67966264,-1.391846,0.37479007,-1.3489692,1.0098103,0.019060671,0.8454902,-0.21111454,0.41190922,-2.0112472,1.3418362,-0.604003,1.756548,-0.6128028
Dina Huapi,0.040170413,-0.39498302,-0.6970284,-1.2845986,1.6945635,2.6305096,-0.0920159,-1.1560296,3.0129423,-0.5904877,-1.59964,-1.1387166,0.30835286,0.45899916,-0.9195171,1.5906206,-0.066663235,0.23028538,0.35551545,-1.1197474,-1.1065338,1.6314589,-0.94547504,-0.12537356,-1.590823,-1.557716,0.7561961,0.08924459,1.2110611,-0.119930476,0.80381066,-0.44525892,-0.68372095,0.40830305,-1.3104126,1.2162646,0.40031525,-0.9815008,0.2650976,0.5841295,0.7517466,0.03495408,0.640881,-0.08785665,-1.1727511,-0.12574579,-1.9985206,0.9360852,3.494892,-1.4980031,1.1050501,-0.030852845,-0.006443935,2.0356007,0.71366036,-0.45825556,3.2460816,-0.47752902,1.2760525,0.6349229,-2.5972188,-2.2504194,2.015322,0.840752,-2.0139964,-1.4384328,1.6535792,0.1194424,0.30464047,-0.04228398,-1.2381967,1.4009143,1.2595397,-1.9432557,1.20039,-0.04221495,0.28886253,0.32163033,0.31142375,0.6056548,0.078917876,1.3699292,0.48854253,0.6680645,-1.0465994,0.18164282,-0.57883877,-1.7451228,0.19639097,0.9908054,0.048560373,4.415837,-1.0140908,-0.33165407,1.6202176,1.7869716,-1.1813484,-0.14410046,1.6592612,2.2379923
Dorrego,0.5032818,-0.2356378,-2.2260895,-0.75266176,-0.9005532,1.3098179,1.5857695,0.80602366,0.7194181,1.5488753,0.43017533,-1.0535775,2.3947508,0.04670549,-0.7641825,0.5086384,-0.042408556,1.0088624,0.04239042,-4.358487,-0.29579517,-0.8208074,0.1642794,1.3151997,-2.377324,0.2691495,0.52019876,0.52932674,-0.6301744,1.2954228,3.0234487,-0.29482815,0.93771046,-1.3893256,-1.6947614,-1.6451905,-1.8338875,0.6812012,-0.21675651,2.3034198,1.0373102,0.35338804,-0.5465212,-1.2955717,0.39566386,-0.72986466,-0.9731272,-1.8766323,2.9458332,-0.54669803,-0.18001735,2.6875675,1.1551418,0.6528476,-0.48058423,0.29136947,-0.31805587,0.5826709,0.7302395,0.37018713,0.78008807,-2.1497095,0.96923876,-1.6949846,-1.5456202,0.007957961,0.021614263,4.0272946,2.7684472,3.5845206,1.0449908,-1.0596163,0.26805717,-1.6339985,0.20308375,-0.2518983,-1.4816335,0.13476115,-1.6611408,0.92357594,0.07048387,-0.28924707,0.35035524,1.3857409,-0.06589332,-1.6978395,1.2390772,-1.2953005,0.3871536,3.059961,2.9106772,1.7078036,0.9242881,0.3151935,0.6918412,-0.21275431,0.76946765,0.7332238,0.3041318,1.5881791
El Algarrobo,-1.7587999,1.2195004,-0.8048962,2.4744973,-1.1028333,0.9030736,-0.9226515,0.1980344,0.14669356,-0.101231776,-1.5470304,1.9382807,0.30166245,-0.6441509,0.3620095,1.5944471,-0.009598481,0.26143727,0.62515247,-0.9061327,-0.36494112,-0.8343567,-1.7690637,0.85980797,-0.6823147,0.38200322,-0.40239477,-1.3931714,-0.5346566,0.41511324,-1.2840596,-1.1926361,-0.09813731,0.5558825,-0.3204596,1.0609335,2.2271352,2.5048163,1.1085174,0.34206575,2.574081,-0.5278232,2.1312275,-1.3005222,-0.8231294,-0.3325473,2.3138301,-0.82405055,-0.5487188,-1.2320787,1.4552783,-1.0045198,-1.0276448,-0.63953704,-0.028941456,-0.58112776,0.48717624,0.57896996,0.8087158,-0.7215672,0.24791554,0.54316163,-0.7487382,1.0652622,0.49733996,-2.1957507,-1.7203826,0.041030556,0.19487678,-0.65255165,0.42969725,-0.9144432,2.7337568,-1.3011155,0.7091336,-1.7239712,-1.2711915,-0.23222335,0.35716793,0.12912084,-0.6420556,1.1050323,3.3695805,0.02399073,-0.27804878,2.243922,-0.15705806,2.274671,-0.6354864,0.36846223,0.12720624,-0.906398,-0.9026718,0.3404375,0.08419217,-0.5904091,0.027697789,-1.7774621,0.6836853,0.6166838
El Calafate,-0.12431212,0.83744895,-0.92646724,-1.0687424,3.292388,0.7512111,-0.52650183,1.0802901,-1.1845872,-0.47376665,-0.6728757,0.9705769,1.0638293,-0.24423832,1.2708195,-0.28387582,-1.8658909,-0.7399938,-0.3010235,-1.0071175,1.07958,0.60402286,0.89926034,-2.288717,-0.25857687,1.8703516,1.1151155,-1.8259188,-0.6686208,0.24462046,0.40173057,0.4980964,-0.31983006,0.12160473,-0.777058,-0.005790263,-1.226456,0.49066576,0.40594545,-0.93453634,-0.57511485,-0.2683631,0.5348256,0.5234237,0.5262233,-1.6254578,0.7598477,-2.449847,-0.5672361,-0.34018427,1.2146078,0.8610018,0.48629996,1.8344558,1.1663315,-2.2855487,0.86531794,-0.07424582,0.9875719,-0.34808934,-1.0060973,-1.6160735,1.1886661,-2.2751384,-0.1427022,0.56892526,1.0947334,-0.070899025,1.2502589,-0.90665865,1.6089078,-2.2312093,1.0281172,-0.5377918,1.8501861,-1.3321567,-0.5486265,-2.1053517,-0.45840052,1.0856711,1.7055507,0.6416617,1.1328276,-1.8435819,2.3987334,1.1190605,0.80171657,0.5544559,-0.2461271,0.023766764,2.1652827,0.3827385,1.3170905,-1.7343581,-0.22943015,0.40995562,-0.21317752,1.8320228,1.8763852,2.281891
El Carrizal,-0.12231067,-2.2271328,-0.8798482,-0.72946376,-0.9329566,0.051374566,-0.00529056,-1.1990836,-0.5188742,1.8908132,0.46013844,1.6061647,-2.8831027,0.14133781,1.0788084,-1.2335962,0.1272365,-0.28454712,1.0221105,0.015273078,-0.19355781,0.55382293,-0.058636677,-0.4986444,-0.93700325,-0.42793667,2.2602303,-0.44018117,0.050319314,0.11088297,-1.553039,1.2411202,-0.4201302,0.86097395,0.6351302,-0.46667638,-0.10509776,1.5912403,-0.4335259,0.40831167,1.8389648,1.1752529,1.8833041,2.4942684,3.0298688,0.35132113,0.6217623,-0.4129394,1.4805268,-1.6510484,0.890288,-0.9427398,0.46953192,0.0028027052,0.62896806,-3.3100588,0.8656569,-0.77220124,1.8667879,-0.35850453,1.2266722,0.37444213,-1.5185636,-1.5020587,0.959835,-1.2338144,0.1949753,1.2366627,1.7291324,2.0263405,0.77397925,-0.7677714,0.39576983,-2.2808511,2.0778813,0.61960834,-0.48548535,2.0035958,-1.9295573,1.1068792,2.3496132,1.0420043,2.538766,0.7272147,-0.4041922,-1.3918109,1.4332085,0.61305285,1.3950585,-1.0740887,-0.3099936,0.035542898,-0.7779542,-0.59039783,0.80773413,-0.7354886,-0.40525243,-1.6371031,-1.3424757,1.953487
